[[-4.19710664e-01 -4.75194878e-01  4.82651951e-01 -4.79563872e-01
  -1.63879281e+00 -8.42978843e-01  5.73090177e-01  5.78921233e-01
   8.00881632e-01  1.69387699e+00  1.26520974e+00 -1.26339247e+00
   6.37838022e-01 -1.67938885e+00  9.26914900e-02 -3.89630347e-01
  -4.67716619e-01 -2.75046289e-01  1.49417268e+00  1.56063888e+00
  -1.33662659e+00 -9.78681266e-02 -5.48060985e-01 -9.15380480e-02
   3.16373003e+00  7.85111743e-01 -1.59752693e+00 -7.92664738e-01
   7.96292856e-01  1.08880037e+00  9.59281873e-01 -7.09813127e-01
  -1.39686711e+00  4.22985716e-01  9.69126415e-02 -5.04079461e-01
   4.66196348e-01  4.79257598e-01  4.67523552e-01  3.30290801e-01
   2.70739542e-01 -6.39991543e-01 -2.35104645e+00 -9.28758573e-01
  -3.61999243e-01 -1.02247897e+00  6.14281366e-01 -6.62181307e-01
   5.62071734e-01  5.87094093e-01  2.27539488e+00  3.40410300e-02
   3.99400373e-01  9.90313486e-01 -9.78433406e-01 -8.51479680e-01
  -5.36798083e-01 -3.04565160e-01  8.39546784e-01  2.43463393e+00
  -3.93909896e-01  6.49777183e-01  3.20163715e-01  1.39681145e+00
   1.34871414e-01  1.31351197e-01  2.10656400e+00  1.46650433e+00
  -6.41276477e-01  3.13673654e-01 -3.27058381e-01 -6.38509968e-01
   1.02087790e+00 -1.37807111e+00  2.50584524e-01 -1.07779992e+00
  -1.30813251e+00 -8.80648997e-02  8.34087901e-01  1.10420388e+00
   6.57645796e-01  9.10557951e-01  1.24377083e-01 -1.59601114e+00
  -9.89073091e-01 -4.00604920e-01  3.01637550e-01  4.04722830e-02
  -1.00827956e+00  1.73711066e+00  1.17039450e+00  1.57999163e+00
   2.48242480e+00 -9.57794297e-02 -1.17834270e+00  2.41244378e+00
  -2.22295657e+00 -1.04269886e+00  9.49720629e-02 -1.16193040e+00
  -1.49258725e+00  2.15603468e-01 -9.18220159e-01 -1.62369394e+00
   3.57920635e-01 -3.54561708e-02  2.29409126e-01 -1.21588508e+00
  -8.32426506e-02  6.13879730e-02  1.36821438e-01 -1.81508544e-01
  -6.71359639e-01  3.96809999e-01  1.22135464e+00  5.63264770e-01
  -7.74768738e-01 -4.80994200e-01  2.39186316e+00 -3.27091911e-03
   6.98134259e-01  1.38588287e+00  2.48459738e+00  1.13101214e+00
  -3.97993064e-01  2.43823924e+00  1.24293638e+00 -1.09294246e+00
  -2.96373197e+00 -1.24845749e+00  1.87361784e-01 -1.35606127e+00
  -8.81245722e-01 -1.63942277e+00  3.32850407e-01 -1.04482712e+00
   1.49814232e+00  4.03105996e-01 -7.28371112e-01 -2.60447158e+00
  -2.89932930e-02 -8.78343396e-02 -1.02182350e+00  4.07949947e-01
   8.62140535e-01 -3.00588557e-02  2.16379364e+00  7.80095647e-01
   6.78665147e-01  5.11658647e-01  5.34144217e-01 -1.10622588e+00
   1.86743143e+00  1.17748640e+00 -7.14547020e-01 -6.42956667e-01
  -1.19415297e+00 -7.81701787e-02 -7.82304674e-01  9.11891970e-01
  -8.63678637e-01  2.49058508e-01 -5.64454746e-01 -8.02307664e-01
   8.16685963e-01  1.35669425e-01  7.04244462e-01  4.71223136e-01
  -7.94557074e-01  3.00430619e-01  7.85425075e-02 -1.12011458e+00
   1.12193534e+00  1.22949280e+00  1.73396234e+00  1.12966056e+00
   4.10990105e-01 -6.73361339e-02 -6.97202585e-01  4.22708897e-01
  -1.98196263e+00 -4.30108463e-01  1.65955754e-01  1.24246450e+00
  -1.21895490e+00  3.42315159e-01 -3.43651174e-01 -1.70882930e+00
  -1.56098940e-02  3.96331366e-01 -2.27695528e+00 -7.17841663e-01
  -2.50230239e+00  5.52427326e-01 -1.80182390e+00  1.08869901e+00
   1.02544948e+00  3.22768826e-01  5.03135321e-01  7.53940892e-03
   3.23354282e+00 -3.20137490e-01  2.08978531e+00 -8.46741225e-01
  -1.76953489e+00 -1.12568782e+00 -4.28345036e-01 -2.16628184e+00
  -3.83150508e-01 -3.01544358e-01 -2.34608302e+00  9.76625316e-01
  -3.08062526e+00 -1.45764629e+00 -3.34962062e-01 -5.16150009e-01
  -1.44482648e-01 -6.01538821e-01 -1.25391957e-01 -1.20535447e+00
  -2.02242148e+00 -1.82132465e+00 -9.64394919e-01  7.58236709e-01
   1.72289366e+00 -8.42770867e-01  3.88945335e-01  2.32036176e-01
   6.17788012e-01 -3.20162568e-01  1.22058722e+00  2.38157926e+00
   9.15903531e-01  1.79303102e+00  1.93360569e+00 -1.15329165e+00
  -7.30614099e-01  2.85175073e-01 -2.54618497e+00 -9.30886159e-01
  -8.68968218e-01 -9.22959609e-01 -9.21722855e-01  7.56297253e-02
   2.92665921e-01 -9.97588221e-02 -9.68509270e-01 -4.75950062e-01
  -3.22103511e-01 -6.02769087e-01  6.00413020e-01  5.48341871e-01
   3.39140305e-02 -4.11551039e-01 -1.16825957e+00 -4.89834046e-01
   5.78801576e-01 -2.60676184e-01  1.51243546e+00  1.10503874e+00
   1.39083238e+00  2.36520097e-01  2.07023635e+00 -7.56525696e-01
  -1.60797038e+00 -2.33911067e+00 -6.81821938e-01  2.63648808e+00
   1.64272417e+00  1.68060207e+00  3.40500067e-01  9.80816547e-01
   3.31065899e-01  1.26150277e+00  6.15015549e-01 -7.80250380e-01
   8.50368941e-01 -3.42559477e-01  5.13283760e-01  1.55399281e+00
  -1.78998634e+00  3.38624441e-02 -1.58633304e-01 -9.48850013e-02
   2.88038866e-01  5.64450586e-01  1.39447229e+00 -8.14034053e-01
   1.17588887e-02 -4.84228138e-01  7.54127126e-01  1.23085211e+00
  -1.68434074e+00 -1.74855965e+00  2.32909747e+00  3.32992701e+00
   3.85055047e+00  1.63323604e+00  3.93414539e+00  4.06587273e+00
   3.26540299e+00  2.41310170e+00  1.35268373e+00  4.80824176e-01
   1.48122087e+00 -1.96924738e+00 -1.09759363e+00 -1.11694457e+00
  -2.15022844e+00  1.64974559e+00  9.18802260e-01  2.64005445e-01
  -3.75746909e-01  1.27459047e-03 -1.91892866e-01 -9.60425969e-01
  -2.38715567e+00  1.57380221e-01 -3.88447867e-01  1.48722278e+00
  -1.44247961e-01  8.88303263e-02  3.15607948e+00  4.39755865e+00
   9.92940779e-01  1.13640729e-01  1.17282888e+00 -8.50152596e-02
   3.12359017e+00  1.64743087e+00  2.73024598e+00  2.19531543e+00
   1.39600944e+00 -1.81152276e+00 -1.97096488e-01  1.60099428e-02
   7.53155883e-01 -1.41141428e-01 -2.09416853e-01  1.02432297e+00
  -8.72941947e-01 -6.90891676e-01 -1.28422765e+00  8.83781020e-01
   3.81832819e-01  5.50476492e-01  8.25086009e-01 -2.34021630e+00
  -1.55696440e+00  3.27596579e-01  2.13023726e+00  7.38827504e-01
   2.22432000e+00  8.47546853e-01  9.68219474e-01  3.95284211e-01
   9.90189896e-01  2.02769049e+00  8.01910083e-01 -1.08604231e+00
  -1.09495677e-01 -1.25719798e-02  2.01145080e-01  2.47396317e-01
   1.69315039e-01 -8.65091550e-01 -2.25632465e-01  1.56481182e+00
   2.50542016e-01 -2.17183807e+00 -1.09487444e+00  2.38601544e-01
   1.03326330e+00 -4.46305913e-01 -2.64597821e+00 -2.37476266e+00
  -9.90296018e-02 -1.01401189e+00  4.21919994e+00  2.32300779e+00
   1.82798563e+00 -1.61238404e-01  2.92858944e+00  6.79623331e-01
   2.83116367e+00  1.04826289e+00  9.72672429e-01 -8.50918236e-01
  -1.65275248e+00  1.75682895e+00 -1.23713746e+00  5.93046047e-02
  -1.59759787e+00 -4.68529556e-01 -2.17756326e-01  6.25028263e-01
   4.29032336e-01 -1.09874174e+00 -5.90928473e-01 -1.02650588e-01
  -1.74604039e+00  5.27643517e-01 -2.34566794e+00  5.38898037e-01
  -3.24320721e-01  9.05217772e-01  3.20271259e+00  1.23625762e+00
   2.44354941e+00  1.45436750e+00  1.65176369e-01  8.16304378e-01
   3.22647483e-01  3.49441318e-01  1.55044584e+00 -1.25138973e+00
  -1.91324995e+00  1.24701960e+00 -1.16253226e+00  4.96101031e-01
   1.86395798e+00  2.66844256e-01  1.07372631e+00 -1.07414939e+00
  -2.13424071e-01 -3.42501380e-01  9.85839969e-02 -6.86369573e-01
   5.18613843e-01 -3.28858400e-01  3.10560924e-01  1.41819236e+00
   7.81919751e-01  3.40588490e+00  3.36785712e+00  2.59799855e+00
   1.46317640e+00  7.46554787e-01  8.37561997e-01  1.22898868e+00
   3.80175707e-01 -7.41734489e-02  1.03633493e+00 -1.76082554e+00
   9.98285022e-02  9.56700313e-01 -3.51278055e-01 -4.66175079e-01
  -6.76653946e-01  5.24182342e-01  1.39714580e+00  1.24994896e+00
   7.25307335e-01 -7.90946778e-01 -4.42983109e-01 -3.42590092e-01
   6.19903248e-01 -2.45987188e-01 -8.54997361e-01  4.27277483e-01
   7.87578890e-01  3.04825685e+00  7.60069643e-01 -1.41900540e+00
  -2.50956791e-01 -7.01706188e-01  2.81952359e-01 -1.57609221e-01
  -1.16349473e+00 -2.93282493e-01 -8.18089479e-01  1.21330312e+00
   1.67997972e-01  9.44466897e-01  1.43966298e+00 -6.37617718e-01
  -2.01246944e+00 -9.85543417e-01  1.26706494e+00  4.20051336e-01
  -7.96224555e-01 -8.76129219e-02 -1.12569938e+00  1.63283991e+00
  -5.61603856e-01  3.05593069e-01 -9.60825257e-01  1.71204392e+00
   5.63301579e-01  1.66392866e+00  2.25270230e+00  1.04934293e+00
   1.36931693e+00  4.48648658e-01  1.01503996e-01  2.18655063e-01
   2.78090219e-01 -6.89529611e-01  6.46936143e-01  5.35675549e-02
   9.95610692e-01  4.59042757e-01 -6.66689202e-02  4.28054037e-01
   2.91406147e-01  1.19881557e-01  7.31531243e-01 -1.92378131e+00
  -6.28366770e-01 -4.05823162e-01  2.54560971e-01 -2.55336154e-01
   5.84829482e-01 -3.81693149e-01 -8.33143649e-01  2.90493367e-01
   3.14757698e+00  1.41555079e+00  2.54636850e+00 -9.00053977e-01
   4.42499126e-01 -9.12002270e-01  1.10379222e+00 -1.21462527e+00
  -9.87762543e-01 -1.63380206e+00  7.36708681e-01 -1.28119212e+00
  -3.94510988e-01 -1.63968858e+00  6.54657330e-01 -7.23790421e-02
   4.15454130e-01 -3.45949302e-02  9.09398020e-01  1.35742594e+00
   1.12993885e+00 -7.43377837e-01 -6.89773708e-01 -7.02182567e-01
   8.64965853e-01  1.52683531e+00  4.16899386e-01  5.79981480e-01
   6.39854410e-01 -1.26750171e+00 -9.80377365e-01 -2.30492375e+00
   1.01224445e+00 -1.30387648e+00  7.23283433e-01  1.32738824e+00
  -7.11190645e-01  1.43332709e+00 -2.03951591e+00 -6.61322592e-01
  -1.26717556e+00 -2.02774487e+00  6.61794035e-02 -5.78257012e-02
   1.18687909e+00  9.90565921e-01 -4.54581780e-02 -3.78426882e-01
  -5.91285667e-01 -3.97751639e-01 -5.01183469e-01  2.23146972e+00
  -1.02362562e+00 -9.21577639e-01 -6.57968150e-01 -2.39460930e+00
  -5.42577473e-01 -6.60455133e-01  1.59126629e-01 -8.24579997e-01
   1.91310258e-01 -1.20663353e+00  2.35534453e-01  2.11251444e-01
   3.51795531e-01 -8.85894527e-02 -1.27532656e+00  2.80615439e-01
   9.30534385e-01  8.20405861e-01 -1.78935026e+00  1.35266768e+00
  -6.13115921e-01  1.72748927e+00 -9.01768908e-02  4.35095738e-01
  -7.33860151e-01 -6.44087230e-01  2.20548551e-01 -3.14675349e-01
   6.32250816e-01 -1.38510483e+00 -2.77134115e-01 -1.67693358e+00
  -9.70926794e-01 -1.41572573e+00 -3.71098092e-01 -1.47130001e+00
  -4.81707005e-01  1.47131980e-01 -2.67275192e-01 -5.24159494e-02
  -8.86840662e-01 -2.51844397e+00 -8.11018434e-01  9.42666947e-01
   8.73960672e-01  7.01322089e-01  4.51661317e-01  6.54205020e-01
   5.07374179e-01 -2.93544295e+00  1.33504110e-01  1.75898544e+00
   7.92491369e-01 -1.24390374e+00  6.94702747e-01 -6.28064953e-01
  -2.74507247e-01  1.13456673e+00  5.42299510e-01 -1.18585667e+00
  -6.99351641e-01 -1.72810949e+00 -1.49986027e-01  7.06152530e-01
  -4.38315261e-01 -6.71410669e-01 -1.04230497e+00  1.59913418e+00
   3.52589844e-01 -1.11173106e+00 -9.28243802e-01 -5.69293472e-01
  -3.23892094e-02 -2.29865596e-01 -2.25966903e+00 -1.46601049e-01
  -1.12847416e+00 -4.45821423e-01 -2.34845312e-01 -3.02419891e-01
   7.70879280e-01 -8.74194412e-02  9.69598033e-01  5.83771197e-01
  -4.50533936e-01  3.81625050e-01  6.70871936e-01 -1.40912535e+00
   1.38409160e+00 -9.22629794e-01 -9.60051296e-01 -1.00431948e+00
  -1.34612064e+00 -9.94736070e-01  5.08244176e-01  9.89783797e-01
   6.65128153e-01 -2.12508271e-01  1.79186475e-01  3.96621365e-02
   5.41092724e-01 -1.36381260e-01  7.20147466e-01  2.08592185e-01
   1.83558156e+00  5.17653745e-01 -1.73380747e-01 -3.97906547e-01
  -2.43497955e+00  7.65779542e-01 -8.44802217e-01  4.07799214e-01
  -4.74547067e-01 -8.54610920e-01  1.68816818e-01 -5.44758255e-01
  -1.43786630e+00 -1.58647493e+00  1.81077733e-01  6.20241114e-01
  -6.70748608e-01 -7.39272655e-01  7.03423032e-01  2.84659433e-01
  -3.28199834e-01  1.09683605e+00  6.58594004e-01  1.76749663e-01
  -5.29086478e-01  1.50663888e+00 -1.40910584e-01  1.23842810e+00
   3.67483469e-01  6.16911068e-03 -7.20193784e-01 -1.45355015e+00
   1.71565102e+00  2.51020234e-02  9.28864033e-01  7.14724770e-01
   9.47625452e-01 -2.79699649e-02 -9.35895413e-02  3.90980221e-01
  -1.76622190e+00 -5.69863184e-02  1.31398173e-01 -1.30299959e+00
  -3.31423383e-01 -9.19148312e-02 -1.40986744e+00 -5.75763682e-01
  -1.88404468e-01 -3.63198018e-02  3.01294439e-02 -6.73302181e-01
  -9.19668285e-01 -5.84041523e-01  4.46740612e-01 -1.77140606e+00
  -1.05606858e-02  1.02537968e+00 -2.96596581e-01 -7.32314372e-01
  -1.92492343e-01 -1.92508988e-01  6.37875111e-01 -1.37901552e+00
   6.34338618e-01  2.09792766e-01 -1.00039851e+00 -8.04569495e-01
   4.06557249e-01  1.02602428e+00 -2.20223411e-01  2.26096606e-01
  -1.37927219e-01 -1.27729201e+00  6.44642937e-01  3.98233172e-01
   2.21734763e-01  3.63331881e-01  6.01526941e-01 -2.18854892e-01
  -5.82361611e-02  1.76294641e+00  9.90409144e-01  7.76006789e-01
  -5.29890178e-01 -1.06726750e+00 -3.85320566e-01 -1.82876307e+00
  -9.05771727e-02  1.36922961e+00  2.39019981e-01  9.35147014e-01
  -4.37018300e-01 -2.62945384e+00 -2.25631158e+00 -1.39515735e+00
  -2.05472202e-02  2.71115691e-01  2.55927607e-01  7.83578584e-01
   6.43192815e-01 -5.92653792e-01 -9.45338615e-01 -3.25928535e-01
   8.58873519e-01 -6.34380036e-02 -8.98254376e-02 -1.70310580e+00
   8.96621245e-01  8.67799730e-01  1.19553835e+00  3.33220065e-01]
 [-1.45835670e+00  1.14115084e+00  1.09552839e+00  3.50417038e-01
   1.16988730e+00  6.99607728e-01  1.15566280e-01 -3.19040559e-02
  -3.29221374e-01 -8.69537622e-01  1.89050477e-01 -2.06839350e+00
  -1.62509468e-01 -1.11318312e+00  6.07269353e-01 -1.19132416e+00
  -9.35741119e-01 -1.47708639e+00  2.82948977e-01  1.29631582e+00
  -7.50346864e-01 -9.60782516e-01  6.95811811e-01  1.11500651e-01
  -7.10798590e-01  1.72639978e-02  2.90908760e-01 -7.24384118e-01
   1.87259597e+00 -4.08644584e-01  2.74983153e-01 -6.24052354e-01
  -7.35564485e-01 -3.58628652e-01 -1.77597098e+00  3.59877377e-01
  -1.98785239e-01  1.39096975e-01 -8.56239824e-02 -1.00419701e-01
  -1.44373705e+00 -1.34178422e+00  1.10471229e+00  2.33564717e-01
   8.30687701e-01 -5.71346834e-01 -1.49783513e+00  9.68993020e-01
  -1.60017816e+00  8.69155377e-01  3.80489572e-02  8.58662636e-01
   3.99891205e-02  1.56463695e+00  1.70572159e-01  4.87399518e-01
  -1.51435492e+00 -1.33388972e+00 -1.65406029e+00 -8.85780889e-01
   9.23265177e-01 -2.04400006e+00  1.23910971e+00  8.89800461e-01
  -3.45768912e-01 -7.75475197e-02  1.76692234e+00 -1.01669394e+00
  -4.08432891e-01  2.10985523e-01 -3.90789888e-01 -2.70886536e+00
  -2.27396141e+00 -1.26504093e-01 -4.53939319e-01 -2.86567489e-01
   8.46640632e-01 -1.87873937e+00  2.99391113e-01  9.09471750e-01
  -5.27616956e-02  2.95640008e-01  1.71309399e+00  2.89009016e+00
  -7.72596317e-02  2.13418639e-01  2.17639013e-01 -1.18477055e-02
   8.67331342e-01 -2.10000415e+00 -8.80548726e-01 -2.56290507e+00
  -1.27000568e+00 -2.69055665e+00 -1.11133027e+00 -7.21940707e-01
  -1.69717391e+00 -1.29714178e+00 -2.34852763e+00  1.22069246e+00
   1.07316485e+00 -9.03176360e-01 -1.03848953e+00 -6.32279090e-01
   8.53441669e-02  1.21222121e+00  1.51179187e-01  1.69131851e-01
   1.43150277e+00  2.50850693e-01  1.00653325e-01  5.49712488e-02
  -2.22520946e-01 -3.19773675e-01  2.00604709e+00  1.67656630e+00
   4.82040853e-01 -8.82539034e-01 -9.79521927e-01 -1.27256787e+00
   6.93213948e-01 -1.20045912e+00 -1.91108265e+00 -5.48751334e-01
   8.10968796e-01  8.02675865e-02  7.05449270e-01  1.69209630e+00
   1.38802154e-02  1.70679791e+00  1.40669770e+00 -8.21438931e-01
   1.48960442e+00 -4.21059264e-01  3.86909754e-01 -1.46936607e+00
   5.91409260e-01 -1.23228152e+00 -1.20234480e+00 -2.01615028e-01
  -1.36421282e-01  1.92006371e+00  1.78404436e-01  2.08210269e+00
   1.41352803e+00  1.12040894e-01  1.99786008e-01  2.17216776e-01
  -1.79508727e+00 -1.26739993e+00 -6.16594753e-01  1.30792233e+00
  -2.62438606e-01 -8.54773434e-02 -4.74827176e-01 -5.15040026e-02
  -6.88249578e-01 -6.84719477e-01 -1.26699669e+00 -2.69380957e+00
  -2.01770449e+00 -9.82481934e-01 -2.37675560e+00 -2.50261651e-01
   8.36143274e-01 -1.69663785e+00  1.39457623e+00  1.88772240e+00
   5.57330440e-01 -4.27703714e-01 -1.54931167e+00 -1.21264428e+00
   2.58369703e-01  8.12449874e-01  5.53173262e-01  1.01263695e+00
   1.92186132e+00 -3.99848419e-02  2.14645739e-01  4.02167259e-01
  -6.21124943e-01  4.51755190e-01  2.43044018e-02 -2.30980633e-01
  -1.83425602e+00  9.39884295e-01 -8.73398700e-01  2.43423567e-01
   2.83500625e-01  1.44256352e+00  3.22365931e-01  1.30157332e-02
  -2.00425649e+00  2.06632846e+00 -1.17254323e-01  1.29132599e+00
  -1.12380857e+00 -1.92829746e+00  1.31433627e+00 -6.73285896e-01
  -1.02363683e-01 -8.80548143e-01 -9.48760651e-01  4.18650023e-01
  -4.28201308e-02  1.17701310e+00  1.08420713e+00  4.98131406e-01
   6.94746421e-01  2.52231841e+00  2.32311596e-01 -5.18207753e-01
   1.72841611e+00  3.43432748e+00  1.56020633e+00  3.64976904e-01
   1.93297315e+00  1.56763688e+00  1.81403317e+00  2.85285447e+00
   1.05139382e+00  8.10122140e-01 -2.07448830e+00 -7.92363872e-01
  -1.39702492e+00 -8.13463647e-01 -6.52072310e-01  5.13484992e-01
   1.07948270e+00  9.47242032e-01  2.77087636e-01  1.71980595e+00
   8.33227625e-02  4.46395104e-01  8.99022484e-01  2.25030705e+00
  -7.31087557e-01  1.31463104e+00  4.31528375e-01  2.44975014e-01
   1.45929190e+00  8.54317708e-01  2.20518975e+00  1.78401874e+00
   2.78330034e+00 -5.17849132e-01  4.60644280e-01  1.23497054e+00
   3.93005255e-01  1.27669290e-01 -1.42618423e+00 -1.39737323e+00
   5.25994051e-01  4.12449740e-01 -1.40460576e+00 -1.90714338e+00
   2.33441674e-02  7.31485668e-01  1.37217567e+00  5.78685739e-01
  -2.16236513e-01  6.36941288e-01  1.85140949e+00  3.05840031e-01
  -6.50466103e-01  4.72624201e-01  3.29541455e-01  1.22610775e+00
   1.22195453e+00  2.06096047e+00  1.79593020e+00  1.89687921e+00
   6.55433083e-01  3.19489940e+00  7.26448037e-01  2.67120179e+00
   1.21693569e-01  5.65325716e-01 -6.35470591e-01 -1.68223365e+00
  -8.41528656e-02  1.13045000e+00  4.48723709e-01  2.46824402e+00
  -6.44195779e-01  1.18335647e+00  1.53294659e+00 -9.83531375e-01
  -1.97487544e-01 -3.27932365e-01 -3.33680285e-01  2.32656194e-01
   2.97820421e-01  2.26873257e+00  8.77792604e-01  1.60339745e+00
   2.07723028e-01  4.44585329e-01  1.14568872e+00  1.50828268e+00
  -3.77464363e-01  1.63768255e+00  3.79404940e-01  4.13900175e-01
   1.46294910e+00 -1.87857514e+00  1.78529992e+00 -4.58434956e-01
   1.32516599e+00  2.74379059e-01 -5.77622097e-01  8.75777751e-01
  -1.18312128e+00 -7.32638428e-01 -7.29619364e-01  4.95033381e-01
   2.45701771e-01  1.55865013e+00 -1.52332247e-01  3.57554559e+00
   1.19325392e+00 -8.11973780e-01 -1.05165691e+00  2.23387352e+00
   2.77349982e+00  2.19068472e-01 -1.58381356e+00  6.21993058e-01
   5.45907387e-01 -1.68899192e+00  7.34803044e-01 -1.60379601e+00
  -2.46759151e-01 -8.06366987e-01 -3.69768110e-01  1.02702657e+00
  -7.16996981e-01  2.22255331e+00 -2.25611248e+00  8.77597915e-01
  -1.59507879e-01 -3.69331934e-01  4.28746829e-01  1.30730361e+00
   1.50396963e+00  8.12931115e-01 -4.36341162e-02  2.12768504e+00
   2.23845103e+00  9.73010264e-01 -2.04039009e-01 -1.38768062e-01
   3.33745429e-01  4.97772610e-01  1.84692898e-01  1.01320522e+00
  -1.43056098e+00 -5.99238321e-01  6.48001615e-01  1.78664329e-02
   8.77437628e-01 -6.41764330e-01  7.46490147e-01  1.04456849e+00
  -1.11220899e-01  1.81368286e+00 -1.64831553e+00 -1.08428327e-01
   4.48830396e-01  1.36487299e+00  1.76346121e+00  1.86922975e+00
   3.65479468e-01  3.87435618e-01 -2.05511052e+00 -3.39143875e-01
   2.94859300e-01 -3.24198422e+00 -3.85453412e+00 -5.55167960e-01
   1.57244699e+00  1.14776233e+00 -3.07516780e-01  1.71057524e+00
   7.98489094e-01  7.52830418e-01  3.31204223e-01 -1.55774691e+00
   2.15600444e-01 -3.48626326e-01  4.76286179e-01  1.87419873e+00
  -2.72918077e+00 -1.77487961e-02  6.37589711e-01  1.92031976e+00
   8.34395896e-01  1.50899461e+00  4.01328634e-01 -1.21002111e-01
  -7.55002598e-01 -5.77653739e-02  1.66653265e+00 -4.37507355e-01
   3.98302869e-01  3.21379179e-01 -2.24856375e+00 -2.24394898e+00
  -1.92185186e+00  2.75008108e+00  1.43561445e+00  2.02038892e+00
   9.64018375e-01  4.56191041e-01 -6.67231727e-01  1.37174336e+00
   1.19502628e+00  7.00545864e-02  8.45453722e-01 -7.48721746e-01
  -3.24682007e-01 -1.18201506e+00 -2.94750702e-01  9.43218962e-01
  -9.23541486e-01 -1.67009748e+00  5.30953374e-01 -1.96907955e-01
   2.88035908e-01  1.03242768e+00  6.43790834e-01  5.51717895e-01
  -1.28845750e+00 -2.33098397e+00 -1.02756800e+00 -2.13642684e+00
  -1.86116230e+00 -6.11121583e-01 -1.21531962e+00  1.20799077e+00
  -9.30049799e-01  1.04149725e+00  9.48189152e-01  1.10426304e-01
  -4.17433139e-01 -9.18561755e-01  1.16325857e+00 -1.21975590e+00
   9.07823980e-01  1.51471156e-01  2.36949508e+00 -3.48244007e-01
  -1.91199092e+00  1.00463217e+00 -5.95930954e-02 -4.89150265e-01
   1.52324986e+00 -1.02848235e+00  9.87114556e-01 -7.74500639e-01
  -1.95669951e+00 -8.12980836e-01 -1.88067889e+00 -1.71684483e+00
  -1.27302088e+00  1.42855782e+00  4.13373197e-01  1.03235529e+00
   6.70723750e-01  9.70116526e-02  1.48892163e-01  1.30304511e+00
  -8.29993731e-01 -1.24592218e+00  7.68762874e-01  1.35758787e+00
  -1.10604047e+00  7.20293386e-01  7.42132024e-01 -1.00041143e+00
   1.36091560e+00  1.60439890e+00 -4.63379478e-03 -4.17874988e-01
  -1.32830962e-01  7.44533205e-01 -5.79304847e-01 -1.17847973e+00
   1.56808779e+00  4.54967796e-01  3.76838545e-01 -1.27881392e+00
  -2.22220478e+00  1.88241185e+00 -6.43527816e-01 -3.44075312e-01
   6.53843827e-01 -7.53294752e-01 -4.03483497e-01 -3.57855169e-01
   3.02001677e-01 -1.50072643e-01 -4.27442985e-01  1.69503767e+00
   2.17297189e-01  8.77493407e-01  1.22611443e+00  2.77071266e-01
   3.32234128e-01 -8.68102761e-01 -3.70682220e-02  8.67625467e-02
   7.06300942e-01 -9.54249949e-01 -1.28236197e+00 -1.55696180e+00
  -1.90906659e+00 -4.39522389e-01 -2.33574334e+00 -1.12983601e+00
   4.77368566e-01 -1.84718896e+00  1.12932404e-01  1.62027308e+00
   4.72743440e-01  3.23609796e-01 -1.76221553e+00 -2.81209694e+00
  -5.43654713e-01  2.66501894e-01 -1.32979630e-01  2.35084028e-01
   3.29014698e-01  1.01945549e-01 -5.16376120e-01  1.36328951e+00
  -4.92738223e-01 -1.02994810e-01 -7.43484689e-01 -1.17680929e+00
  -8.92642072e-01 -1.30521009e+00 -1.40409733e+00  1.16630518e-01
   1.48943590e-01  1.45194302e+00 -7.12553882e-01 -7.54779046e-01
  -9.55500242e-01 -1.69925413e+00 -2.75197999e+00  4.04725005e-01
   2.86414173e-01 -5.44281976e-01  4.19794643e-01 -1.35251344e+00
  -1.28225551e+00  9.00042047e-01 -2.28462969e+00 -1.06465971e+00
  -2.41609195e-01  1.42610454e-01 -6.28206185e-01 -7.84553099e-01
   1.14258765e+00 -2.10992170e+00 -1.84656941e+00 -1.15630046e+00
  -9.90637760e-01  1.06144441e+00 -2.12916430e+00 -1.67254335e+00
  -6.77323690e-01 -1.76573138e+00 -1.39159579e+00 -1.24868244e+00
  -5.01648368e-02 -2.01998610e-01 -8.61261965e-01 -9.62091467e-01
  -5.69428496e-01  1.08974144e+00 -1.29431446e+00 -5.39790676e-01
  -3.35863837e-01 -1.37923602e+00  3.16682781e-01  7.04205465e-01
   1.10807464e-01 -5.32214409e-01  1.44812841e-01 -1.26066470e-01
   8.31067951e-01 -1.08660033e-01  2.82538729e-01 -1.04585481e+00
  -9.08999810e-01 -1.63459072e+00 -2.03202167e+00 -3.04757301e-01
  -1.41625336e+00  2.14685149e-01  2.94445118e-01 -4.39459328e-01
  -5.09924982e-01 -9.08364694e-01  1.64406689e-01 -5.12948601e-01
   7.87446216e-01  5.63214734e-02  8.14027771e-01 -1.73901123e+00
   2.28384433e-01 -1.64364518e-01 -6.00976684e-02  1.44446430e-02
   2.01975993e+00  1.48155583e+00 -1.07602579e+00  3.75629455e-01
  -7.79517900e-01 -1.24612382e+00  1.13951693e+00  1.13829906e+00
  -6.33877572e-01 -1.02866462e+00 -1.16848854e+00  7.01995578e-02
   1.43702540e-01  1.30305845e+00 -7.07156316e-01 -8.85061872e-01
   1.78401430e-01  1.09425746e+00  8.44805965e-01 -1.13249877e+00
   1.02646262e-01  6.98075630e-01 -1.25348989e+00 -3.04080112e-01
  -1.18280982e+00 -2.28522126e-02  7.40407405e-01  4.28223650e-01
   1.24736973e-02  4.79985532e-01 -9.35273273e-01 -1.03830878e+00
  -3.98552435e-01  1.17495505e+00  1.56626754e-01  8.95966704e-01
   1.51464935e+00  9.62783511e-01  1.95439513e+00  2.45162215e+00
   1.91277400e+00  8.36841177e-01  1.57843179e-02 -1.79956607e+00
  -7.48018237e-01  1.04811235e+00  1.24102684e-02 -3.61003607e-01
   3.54391340e-01  5.71701975e-01 -6.12136521e-01 -6.15973692e-03
  -1.31629465e+00 -8.47291810e-01 -3.93929613e-02  1.21569931e+00
  -8.11202072e-01 -6.11858416e-01  5.86582594e-01 -1.08033253e+00
  -1.65640895e+00 -9.59542043e-01 -3.53431980e-01  2.03136562e+00
   1.65343021e+00 -5.21587687e-01  1.85299944e+00 -8.00026593e-02
   1.20173415e+00  2.27980789e+00 -1.27458595e-01  6.33233577e-01
   1.93175362e-01 -1.51410094e+00  9.49780664e-01 -5.19065751e-01
  -1.51836275e+00 -1.74315823e+00  5.59474424e-01  1.58595169e+00
  -1.42366899e+00 -9.74572267e-01  9.26661835e-01 -1.37549716e+00
  -9.67024908e-02  2.70009661e-01 -9.19514265e-01  1.40616486e+00
   6.16982671e-01 -2.78025177e-01 -7.83989423e-01 -6.15277047e-01
   4.33290210e-01  1.83628723e+00  6.78220480e-01  2.30639638e+00
   1.58384704e-01  5.43849831e-01 -1.31457896e+00  2.48879863e+00
   3.03833601e+00 -8.89997475e-01 -9.49214387e-01 -6.26332367e-01
  -8.47524123e-01  1.16692460e+00 -1.31741125e+00 -4.72398164e-01
   5.99963054e-01 -7.88918817e-01  1.62046373e+00 -1.23457231e+00
   1.51204617e+00  1.27111548e-02  1.28590404e+00 -3.94405557e-01
   1.56247454e+00 -6.70434746e-01 -8.65690445e-01 -1.49700016e+00
   1.34919832e+00  3.51880605e-01  1.78659903e+00  4.85849498e-01
  -7.22352908e-01 -8.73867466e-01  2.88466522e-01 -1.56255760e+00
   8.30288028e-01 -9.95269163e-01 -8.46918916e-01  4.04994907e-01
  -3.68278744e-01  1.06896316e+00 -9.39077992e-01  2.64773563e-01
   2.76792055e-01 -1.73554948e-01  1.31982327e+00  1.46885485e+00
   6.84405059e-01  6.24247461e-01  6.11181599e-01  2.60953404e-01
   5.76580234e-01 -3.88141843e-01 -6.91967242e-02  1.54453173e-01
  -1.86126851e+00 -3.80784570e-01 -1.14795035e+00 -2.94859037e-01
   8.79634519e-01 -8.75688431e-01  3.45236989e-01  9.90741461e-02
   1.66121357e+00  1.27092589e+00 -1.00633159e-01 -9.72504753e-01
  -3.41007755e-01  1.24212703e+00  8.00113337e-01 -4.30053762e-01
   1.37305363e+00 -4.49335693e-02 -4.75834286e-01  5.93863231e-01]
 [ 7.04919882e-01 -9.33004177e-01 -4.01189328e-01 -5.89400530e-02
   3.11374895e-02 -1.12960796e-01  2.52526379e+00 -1.57975533e-01
  -1.01911973e+00  2.87591024e-01 -2.03391562e+00  1.26261323e+00
   4.59788804e-01 -3.55101317e-02 -4.24305366e-01  1.97530112e-01
  -5.48138544e-01 -7.32854572e-01 -7.76856334e-01 -8.43446313e-01
  -1.02518055e+00  2.11338082e+00  7.75513352e-01 -1.19879943e-03
  -5.68852782e-01 -1.07617339e+00 -7.63481486e-01 -2.04045170e-01
   5.89550974e-01 -1.58624322e+00 -1.40454409e+00 -5.45335156e-01
   4.26936610e-01 -2.56868789e-01 -4.05830847e-02 -4.20918560e-01
  -2.97982605e-01  5.06658895e-01 -3.04739149e-01  1.77659973e-02
  -8.56871590e-01  1.21983707e+00 -3.63144030e-01 -5.55864548e-01
   7.42844638e-01 -1.68290039e-02  2.71294788e-01  9.49956602e-03
   1.40838101e+00  4.83339096e-01 -6.55915628e-01  1.51187573e+00
   1.16003192e-01 -4.57790449e-01 -4.76343175e-01  2.15829912e-01
  -1.41016326e-01 -1.41674964e+00  9.98239480e-01  6.56843308e-02
   1.05374557e+00  3.53998527e-01  1.54887019e+00 -8.35111037e-01
   5.51639919e-01 -1.88087287e+00  4.74333793e-01  1.74819384e+00
   1.27460396e+00  5.84225792e-01 -4.14484599e-01  7.38533350e-01
  -4.58602978e-01  2.15289415e+00  9.16783457e-01  1.12206292e+00
  -1.24169677e+00 -6.73259141e-01  1.01579882e+00  1.38060004e+00
  -1.92387029e-01  1.61276710e-01 -1.29633814e-01  6.22276232e-01
   3.16487716e-01  1.95907211e-01  5.32860346e-01  3.85824813e-01
   8.70103581e-01 -1.57900880e+00 -1.01259550e+00 -1.65746534e+00
  -1.00054128e+00  1.32913540e+00  2.14128637e+00  6.80715846e-01
   1.92545752e+00  9.48180472e-01  4.98860941e-01  1.39077620e+00
   3.60420531e+00  1.42178876e+00  1.34608637e+00 -3.15862186e-01
   2.12881180e+00  1.52958667e+00 -7.99835709e-01 -5.93845176e-01
  -4.16629558e-04  3.60846257e-01  2.01814559e+00 -2.88728908e-01
   1.78755579e+00  7.70666121e-01 -1.05282723e+00  2.98364773e-01
   1.26796213e-01 -1.34177745e+00 -4.07662213e-02 -6.19263688e-02
  -3.56544320e-01  2.10875740e-01  7.59441181e-01  1.20851784e+00
   1.22239889e+00  3.92853290e+00  2.88845606e+00  1.07298433e+00
   9.06551934e-01  1.19315158e+00 -8.77285292e-01  6.24450508e-01
  -1.52667946e+00  9.38523768e-01 -5.52596776e-01  5.93732949e-01
   1.90267184e-01 -8.52525720e-01  1.47820257e+00  5.44150682e-01
  -2.62292279e-01  5.24046366e-01  7.73957755e-01  7.91007652e-01
  -1.05485804e+00  4.83703459e-01 -8.90627486e-01  6.01296632e-01
   9.48009951e-01 -5.18623729e-01  9.32659632e-02 -7.15622039e-01
   4.40709336e-01 -5.70781709e-01  1.15141814e+00  2.31765336e+00
  -8.26119645e-01 -2.22146104e-02  2.61642802e-01  1.65614896e+00
  -8.23198627e-01  1.33057950e-01 -1.12124926e+00 -2.64768771e-01
  -1.69624057e+00  1.05262239e+00 -1.47920350e+00  4.44388053e-01
   1.99833360e+00 -1.53337751e+00 -6.92221235e-01  3.13883048e-01
   1.18741611e+00 -3.97829346e-01  1.82364325e+00  2.10891928e+00
   8.17296162e-01  1.15099244e+00 -1.66770257e+00 -3.45414283e+00
   1.93113099e-01 -3.35688790e+00  8.26195400e-01 -6.23512035e-01
  -8.11418414e-01  2.05666396e-01 -2.70717054e-01 -2.05748762e+00
   9.55934423e-01 -1.96210720e-01  8.16823718e-01 -1.65908034e+00
   1.58722350e-02 -2.33146762e+00 -2.58759670e+00 -1.37816008e+00
   3.94267937e-01  5.92389641e-01  3.96473974e-01 -8.57182822e-01
  -6.78020303e-01 -9.39189644e-01 -9.98585140e-01 -4.34428861e-01
  -2.24112590e+00  4.51559367e-01 -1.21472157e+00 -3.15021917e+00
  -2.91315065e-01 -2.10472223e+00 -7.00511443e-01  1.25151411e+00
  -2.10808284e+00 -4.69562029e-01 -1.99152532e+00 -1.38635176e-01
  -2.23667362e+00 -7.10178401e-01 -1.51887333e+00 -6.23834547e-01
  -1.71939377e+00  2.50155428e-01  5.47725372e-01  3.42130557e-01
   1.04507037e+00 -1.48685236e+00 -4.01103804e-01 -1.04111741e-01
   1.55366241e-01  4.34639657e-01  7.21472308e-02 -2.45243159e+00
  -2.02030915e+00 -4.63988744e-01  3.67320853e-01 -1.43046718e+00
  -2.28500509e-01 -4.70408700e-02 -1.45032437e+00  1.76227171e+00
  -7.08829196e-01 -1.00907303e+00 -3.90218762e-01 -4.67219319e-01
  -1.47826122e+00 -9.93230064e-01 -4.14131364e-01 -1.99117979e+00
  -9.50060028e-01  6.27446386e-01  2.92242069e-01  7.79468545e-01
  -1.19290747e-01  6.70219944e-01  1.25266726e+00 -6.19492812e-02
  -4.71006399e-01 -1.40668377e+00  3.66391126e-01 -9.68295915e-01
   5.68340209e-01 -6.10695419e-01 -1.58342131e+00 -4.90850261e-01
   5.12687896e-01 -1.11159332e+00 -1.21839719e+00 -1.41192060e+00
  -8.94706469e-01 -1.98011282e-01 -1.05165271e+00  1.34507887e-01
   4.35275296e-01 -7.65392411e-01  9.72462103e-02 -4.35913489e-01
   6.35103228e-01 -1.44636358e+00 -7.21387223e-01  1.42838762e-01
   8.44050026e-01  2.88543771e-01 -7.21331381e-01  4.95055609e-01
  -1.47436212e+00 -1.45716516e+00 -1.65940300e+00  2.37658209e-01
  -1.71225359e+00 -9.17375919e-01 -2.01228362e+00 -2.87646031e+00
  -1.95141126e+00 -7.96017021e-01 -1.16267291e+00  2.87414189e-01
   1.96460656e+00  2.67751549e+00  5.24442620e-01  1.34592629e-02
   3.84841761e-01  1.83003252e+00 -1.03663453e+00  2.93515571e-01
  -4.01634296e-01 -3.01987467e-01 -1.09840678e+00  1.28440091e+00
  -1.26917427e+00  1.01025025e+00 -2.30172536e+00 -3.38926352e-01
  -7.96522037e-01  2.42687217e-01 -1.41517068e+00 -2.27917106e-01
   3.22458492e-01  6.68323741e-02 -2.86760886e-01 -2.87234659e+00
  -2.23211725e+00 -5.86160050e-01 -9.17248576e-01 -8.18422273e-01
   2.52324156e+00 -5.72208157e-01  3.63705367e-01 -7.50411525e-01
   1.40004578e+00  4.72752205e-01 -1.40884990e-01 -1.44748749e-02
   1.39916023e+00 -5.98436882e-01  3.24628027e-01 -2.69395171e+00
   4.07237786e-01 -2.21265984e-02  1.96111129e+00  2.11449489e-01
  -3.01822927e-01 -1.73558532e+00 -1.03449337e+00 -4.45112096e-01
  -5.82502380e-02 -9.88101859e-01  4.02649229e-02  3.92051029e-01
   2.87534626e-01 -4.07919016e-02 -5.76406861e-01 -1.97686574e-01
   5.48531081e-01 -1.98846128e+00 -2.63636144e-01  1.53311958e+00
  -7.76775509e-01 -7.79089548e-01  7.15167328e-02 -7.92979179e-01
  -3.11769138e-03  4.41165007e-01 -2.76933330e+00 -6.65037000e-01
  -1.49786224e+00  1.23471879e+00  1.81066061e+00  1.38485281e-01
   1.20990391e+00  2.19993145e+00  1.25794845e+00 -6.34086422e-02
   1.68467919e+00  9.37411012e-01  1.24696656e+00  2.57574016e+00
   2.24193195e+00 -1.55107480e+00 -1.46969964e+00  1.03069790e+00
  -8.09158361e-01 -1.78642831e+00  5.76478210e-01 -2.26752901e-01
  -2.17093068e-01 -7.99497030e-01  2.74008807e-01  2.22822307e+00
  -1.59263399e+00 -7.25754888e-01 -1.43363316e+00  8.30355603e-01
   1.05170143e+00 -1.45912141e+00  1.07540952e+00 -1.25172003e+00
   8.32137268e-02 -1.65294730e-01  8.45803370e-01  1.66848135e+00
   7.54103191e-01  4.09835975e+00  2.38403762e+00  2.10951225e+00
   2.42096479e+00 -8.86998671e-01 -1.15279920e+00 -2.58009420e-01
  -1.20374703e+00  2.85035301e-01 -2.05905882e-01  6.22424134e-01
   1.89598058e-01 -5.06555485e-01  2.30940466e+00  1.12213447e+00
   6.29000991e-01 -8.52929002e-01 -8.73678569e-01  7.53184247e-01
  -1.01367171e+00 -5.32374678e-01 -5.67485143e-01 -1.33100323e-02
  -3.27198666e-02  2.03937128e+00  2.64242942e+00  3.29118882e+00
   2.17042106e+00  1.79751511e+00 -2.94304256e-01  1.48848607e+00
  -4.02679075e-02  4.21739043e-01  5.70096383e-02  6.09977206e-02
  -9.66187604e-01 -1.14790670e+00 -1.55931213e+00 -7.66369069e-01
  -7.94465913e-01  2.40003218e+00  1.27488951e+00  1.72634425e+00
  -5.84997587e-01 -2.05878684e+00 -2.50383042e+00 -1.80531959e-01
  -9.64116228e-02  2.90138826e-01  6.79552939e-01 -1.20546080e+00
   2.99897783e-01  1.58622605e+00  2.04480987e+00  4.72482157e-01
  -3.15178166e-01 -1.66984932e+00  2.11500105e+00  1.85267410e+00
   6.72705498e-01 -4.09280624e-01  4.35972726e-01 -6.00991250e-01
   3.97399686e-01 -7.49126141e-01 -4.15806220e-01  1.69015011e+00
   1.84421939e-04  5.24280140e-01 -7.14610440e-01  1.44652993e+00
   1.92800341e+00 -1.26538473e+00 -1.61491675e+00 -1.44765711e+00
   3.68704487e-01 -1.18488177e+00 -8.51153616e-01 -1.66593753e+00
   3.01574648e-01  1.58233270e+00  8.46676937e-01  1.89713906e-01
  -8.83797575e-01  2.50170431e-02  1.72815709e-02 -2.89751429e-01
   4.95512570e-01 -4.89270993e-01 -1.23021398e+00 -9.40790752e-01
   2.14558845e-01 -8.54197148e-01  8.96348359e-01  3.68722167e-01
   7.38423693e-01  1.78925793e+00 -4.37139073e-01  1.48076144e-01
  -8.98548213e-01 -1.13871321e+00 -4.61330497e-01 -5.86989072e-01
   3.27366964e-01  7.11343192e-01 -1.07935393e+00 -7.42829552e-01
   6.34184447e-02 -3.06047027e-02  2.81985160e-01 -1.33611059e+00
   4.88401178e-01  1.16463102e+00 -6.03906411e-01  3.45962821e-01
   2.09456889e+00  3.32469332e-01 -9.71328274e-01  1.53902528e-01
   1.60630601e+00 -1.10441332e+00 -1.02375481e+00  6.06656214e-01
  -1.54415283e+00 -5.99811981e-01  1.99211746e+00  6.12430912e-01
   1.10415645e+00 -1.47889537e+00  1.07641514e+00 -1.20320047e+00
   1.03695907e+00  1.79165068e-03 -1.89933953e+00  2.42027345e-01
   2.59332698e-02  6.01505582e-02  8.45901424e-01  3.29338497e-01
  -1.81178981e+00  4.37732586e-01  1.00707571e+00  9.57101262e-01
   6.13956355e-01 -8.04900474e-01 -9.71545881e-02 -3.87297593e-01
  -5.60259215e-01  5.77635349e-01  1.08585929e-01 -1.53331239e+00
  -2.25112526e-01  8.85923715e-01  1.13468253e+00  1.46125047e+00
  -9.14958064e-01 -1.39604617e+00  2.15334267e+00 -2.95204926e-02
   1.25230828e+00 -1.01466401e+00 -1.03479019e+00  9.30657309e-01
   8.68222632e-01 -2.03149921e+00  7.50425056e-01  1.82017805e+00
   1.26869131e+00  5.22009891e-01  6.47481862e-01 -1.23303144e+00
   1.84326714e+00 -7.19452123e-02  5.90901430e-02  2.76978707e-01
   1.87832995e+00  1.71165257e+00  1.04943918e+00 -8.59086392e-01
  -8.75566309e-01  1.66387354e+00  3.11959369e-01 -1.03301808e-01
   5.91120460e-01  1.06414207e+00 -2.74427012e-01  8.31924081e-02
  -5.85260115e-01  3.79184250e-02 -9.75355926e-01 -2.95424265e-01
   1.32524681e+00  7.07178071e-01  2.30227676e+00  4.54414827e-03
  -1.04286054e+00  5.88252886e-01  1.86849368e+00  2.47493200e+00
  -1.43209553e-01  1.54683292e+00 -2.31637309e-01  2.50534759e-01
   5.38002544e-01  1.22852658e+00  2.22414422e+00 -6.44574236e-01
  -8.93988858e-02  9.82498183e-01 -8.29176474e-01 -4.62650352e-01
  -2.13292845e+00 -1.76639437e+00 -7.15020883e-02  2.15321403e+00
  -1.10745394e+00  1.74275005e+00  6.51846438e-01 -5.12556748e-01
   1.04864270e+00  1.19882292e+00 -5.18983048e-01  1.05985822e+00
   1.12155573e+00  1.22935027e+00 -4.26697969e-02  5.46524374e-01
   5.22248944e-01  3.04687264e-01  1.78540504e+00  3.68097605e-01
  -9.81829047e-01  8.08754038e-01  6.81058498e-01  2.15012701e+00
   8.64458578e-01 -9.14829451e-01 -5.40702099e-01 -7.38816785e-01
  -6.96959018e-01  5.57094684e-01 -1.06101252e+00 -1.10768416e-01
   1.10684880e+00 -2.29683870e-01 -1.33258469e+00  9.97236573e-01
  -5.97907682e-03 -1.23501951e+00  9.78557176e-01  2.54393395e+00
   8.09723748e-01  4.42649325e-01 -2.61176212e-01  1.33274961e+00
   1.30910699e+00  1.56196660e+00  2.69798968e-01  5.41792348e-01
   3.37995008e-01 -3.19036914e-01 -1.01980251e+00  7.64629570e-01
   2.20870553e-02  1.32377696e+00 -1.24195889e+00 -6.59150043e-01
  -6.91892438e-01 -6.46840115e-01  1.45911485e-01 -1.82018120e-01
   3.16487626e-01  2.08163414e+00  5.08064752e-01 -2.14916773e-02
  -1.26547506e-01 -5.21474462e-01 -6.23816050e-02 -3.91865285e-01
  -3.40031319e-01  1.88100241e+00  2.69435493e-01  1.28807942e+00
   7.48238948e-01  1.19907247e+00 -6.63319827e-01 -7.75762890e-01
   2.41775629e+00 -1.38077023e-01 -7.77215456e-01 -5.13926847e-02
   7.62912704e-01 -1.76692812e+00 -1.47278494e+00  3.96909406e-01
  -7.15136018e-01 -6.50694611e-01 -1.45897365e+00 -1.63413872e-01
  -7.60486538e-01 -4.40300518e-01  2.19718755e-01  1.00638354e-01
  -3.82083921e-01  3.91094500e-01  1.20792255e-01 -1.91467322e+00
  -2.45524084e+00 -1.79360798e+00 -4.79003418e-01 -2.89763053e+00
  -2.75712308e+00 -2.82959690e+00 -5.17504571e-01 -9.65409632e-01
  -9.79593351e-01 -4.11949669e-02 -1.44270297e+00  5.63991605e-01
  -6.47688897e-01 -6.18630201e-02 -7.03941898e-01 -3.55741537e-01
  -6.09693277e-01  8.01801375e-01  1.66682477e+00 -3.87327331e-02
  -3.53639019e-01 -6.09827519e-01  1.43894043e-01  2.90208527e-01
   6.86566379e-01  9.61544234e-01 -1.46759178e+00  3.76391436e-01
  -1.06779891e+00 -1.62144844e+00 -8.34548286e-01 -1.51404019e+00
  -1.81005267e+00 -2.76271482e+00 -2.55716614e+00 -3.09673214e-02
  -2.46718153e+00  2.53758813e-01 -2.38027632e+00  1.79623225e+00
  -6.81622997e-01  7.42744017e-01 -1.43748779e-01  7.63123989e-01
   1.44437039e+00 -5.21249605e-02 -1.24038619e-01  1.06278762e+00
  -1.80684966e-01  2.36543050e+00  2.99209902e-01 -3.14914778e+00
  -7.82521550e-01 -7.43945591e-01  4.21374922e-01  7.26569869e-01
   5.06608365e-01 -2.70969223e-01  2.18234470e-01 -3.36683757e-01
  -9.47588727e-01 -8.08676807e-01 -2.24027680e-01 -1.01580409e+00
  -1.43184798e+00  8.90556066e-02 -1.16208943e+00 -1.58010440e+00
   1.89777292e-01 -2.30505892e-01  5.24665877e-01 -7.47320458e-01
   8.32189495e-01  7.79277356e-01 -3.76848139e-01 -1.63826938e+00]
 [ 4.58218932e-01 -6.70481182e-01 -3.12526434e-01  2.73750994e-01
   1.01589461e-01  1.29334338e+00  7.08920894e-01 -6.11819183e-02
   3.43049926e-01 -9.28530846e-01  5.39992507e-01 -9.44993310e-01
   3.07091990e-01 -9.14376134e-02  7.67575255e-01  6.13007252e-01
   1.26652592e+00 -5.48547960e-01  1.54848611e+00 -1.30498808e+00
   9.93385775e-01 -4.55796643e-01  8.70979490e-01 -4.96681275e-02
   1.02669883e+00 -1.17381984e-01  4.91586448e-01  6.77474067e-01
  -1.53063421e+00 -1.31390013e+00 -3.41351890e-01 -1.80755149e+00
  -6.27665154e-01 -5.99858867e-01 -5.64028221e-01  7.72012955e-01
   2.00908893e+00  5.37342795e-01 -1.37330974e-01 -9.39998544e-01
  -3.60490482e-02  9.35100743e-02 -4.78325727e-01 -8.81753282e-01
  -1.41191507e+00 -9.28396827e-01 -1.24899776e+00 -1.67811106e+00
  -7.44492465e-02  7.51114039e-01 -1.10221447e+00 -4.06228772e-01
   2.06632221e+00 -1.47576705e+00  8.32322391e-01 -1.46510766e+00
  -3.36908307e-01 -1.36649739e-01 -2.87296941e-02 -6.81397985e-01
  -4.27070810e-01  7.66542529e-01 -2.03480663e-01  8.59593259e-01
   3.26306198e-01 -7.03381941e-01 -1.18718939e-01  5.09056267e-01
   6.91130367e-01  1.57100980e+00  1.10678032e+00 -9.44184262e-01
  -5.03084358e-01  1.27155008e+00 -1.16421998e+00 -4.03821684e-01
   9.35192494e-01  1.50984814e+00  1.21874344e+00 -1.11276438e+00
  -5.84077998e-01  1.84230861e+00  3.12083976e-01 -1.91145211e+00
   2.14376819e+00  6.08306959e-01 -4.80944954e-01  6.51753381e-01
  -1.05585967e+00 -7.97010100e-01 -5.83525814e-01 -1.62485665e+00
   1.00387033e-01  4.97862259e-01 -1.17026095e+00 -5.13864623e-01
   1.23310307e+00  2.66315402e-01 -3.53146909e-01 -8.65045243e-01
  -6.86595726e-01 -1.72796966e+00 -1.52594390e+00 -1.58016938e-01
  -3.38225198e-01 -1.10401260e+00 -2.20864721e+00  2.32527763e-02
  -1.82576017e-01 -1.05688138e-02 -2.80505263e-01 -2.09139148e-01
   1.36283002e+00  2.10508673e-01 -4.85831708e-01 -7.65337514e-02
   1.59893222e+00 -1.47170748e+00 -3.18164300e-01  1.26070359e+00
   1.17810168e-01  8.22126939e-01  1.11451054e+00  1.50938942e+00
   1.17243249e+00 -1.48085169e+00 -3.33449111e-01  9.89008359e-01
  -9.20507391e-01 -1.17373107e-01 -2.27423390e+00  6.34104072e-01
   6.59420026e-01 -6.54693532e-01 -3.82765090e-01  2.03106760e+00
   3.87835901e-01 -3.94395735e-02  6.70739230e-01 -1.75690674e+00
   3.79905435e-01 -1.33437086e-01 -2.17355427e-02 -8.88381273e-02
  -1.64860352e-01  1.51357930e+00  1.35298298e-01  2.97720645e-01
  -6.02646815e-01  1.80748886e+00 -5.92415516e-01 -6.82329216e-01
   5.21512774e-01 -9.93223007e-01 -1.13705526e+00 -8.73360762e-01
  -5.29928001e-01  7.09237223e-01  2.26149339e-02  1.68784171e-01
   1.01321097e+00  1.02624559e+00  2.26347914e-01  5.52868345e-01
  -1.68517841e+00 -1.49953397e-01 -2.86650057e-01 -5.26058875e-01
   8.32231962e-01  1.21485319e+00  4.69186741e-01 -6.53688800e-01
  -6.53861975e-01 -1.11037305e+00 -3.47583067e-01 -1.99392205e+00
  -1.20915801e+00 -1.36729380e+00 -1.49951515e+00 -2.46149949e+00
  -1.42923164e+00 -6.36432901e-01  7.24096795e-01 -9.18441125e-02
   3.82112182e-01  2.23942730e-01 -7.11826915e-01 -2.63921308e-01
   8.15887974e-01 -1.50196001e+00 -6.67147996e-03 -1.77052314e+00
   5.57748607e-01 -3.14303050e-01 -9.18950656e-01 -4.57224594e-02
   1.47372935e+00 -7.98120863e-01 -4.00501786e-01  5.30199878e-02
  -1.74796915e-02 -1.14241291e+00 -1.47730451e+00  3.49295380e-01
  -5.40286691e-01 -1.15339521e+00 -1.63805118e+00  1.02427572e-02
  -1.85852226e+00 -1.53458195e+00 -9.32337644e-02 -5.48246864e-01
  -9.73117057e-01 -1.92571729e+00 -3.41713834e-01 -2.10747414e-01
  -1.57838101e+00 -4.76025895e-01  3.43926652e-01  1.30583346e-01
   1.89549447e-02 -1.02783250e-02 -7.43919518e-02 -5.43145439e-02
   1.06462545e+00  1.60810387e+00  7.84423042e-01 -5.49356763e-01
   7.95311591e-01 -1.70389834e+00 -3.61557881e+00 -2.51088642e+00
  -2.72448040e+00  3.56735837e-01 -1.57118123e+00 -1.34834311e+00
  -2.04833314e+00 -4.86048322e-01  8.49674757e-01 -1.00306703e+00
  -6.37654313e-01 -5.20481005e-01  5.42501424e-01 -2.01245186e-01
  -1.88985974e+00 -8.08871990e-01  3.29778423e-02 -1.15007031e+00
  -1.78860371e+00 -1.94875748e+00 -4.14973313e-02 -2.23782473e-01
  -1.29632250e+00 -1.96025472e+00 -1.14060665e+00 -1.62577009e+00
  -1.50179903e+00 -5.49677095e-01 -1.90760948e-01 -2.12171149e+00
  -1.02391992e+00 -2.22418291e+00 -2.47010026e-01 -8.20947056e-02
   3.06629678e-01 -1.94303144e+00 -7.86291340e-01  5.05217386e-01
  -1.99596210e+00 -1.72042681e+00 -6.58406805e-01 -1.67395924e+00
   2.59121209e-01  3.85713923e-01 -1.15617475e+00 -2.43575005e+00
  -2.61548651e+00  1.86857530e-01 -4.85168910e-01  1.58871458e+00
   3.59974414e-01  1.38169985e+00  7.96245046e-02 -3.67827646e-01
  -1.35721505e+00 -3.00460348e-01 -6.44169150e-01 -1.36119268e+00
  -5.00031456e-02  8.74079804e-01 -1.68862298e+00 -1.17946912e+00
  -1.08085052e+00  1.01268381e+00 -2.33432484e+00  5.48152353e-01
  -8.66245170e-01 -1.05505700e+00 -5.90271313e-01  6.37892798e-02
  -2.55551188e-01 -2.10831981e-01 -7.57714766e-01 -9.43441158e-02
  -1.11087187e+00 -1.09023233e+00 -1.73308580e+00  1.60778501e+00
   4.94780176e-01  1.55659638e+00  3.77521925e-01 -4.64305771e-01
   5.79708039e-02 -8.57209805e-01 -2.66166185e-01  6.53534758e-01
  -8.00236276e-01  1.94083473e-02  1.03726491e+00 -1.42114032e+00
   3.49958840e-01 -1.04260222e+00 -1.98339099e+00 -6.48767749e-01
  -8.52023961e-01  7.08706785e-01 -1.81033865e+00 -7.26424077e-01
  -4.19201787e-01 -1.51765002e+00 -6.98080929e-01 -1.75806509e+00
  -7.98927238e-01 -6.10455285e-01 -1.36023787e+00  1.12675949e+00
  -1.82023189e+00 -5.56938360e-01 -4.33876507e-01 -5.28580346e-01
   3.74777534e-01 -3.30439468e-01  1.38143993e-01 -6.82666659e-02
  -1.22090016e+00 -2.34867361e-01 -1.65300823e-01 -6.23611565e-01
   2.46422127e-01 -1.49262497e+00 -1.94304105e+00 -5.93521409e-01
  -2.39773196e+00 -1.46542028e+00  3.88081573e-01  1.42913656e+00
  -1.31799043e+00  1.21825492e-02 -1.71206572e+00 -2.96077890e+00
  -1.64835176e+00 -2.84499095e+00  7.64883423e-01  1.65022178e-01
  -3.03562329e-01  2.36801611e-01 -1.63612863e+00 -2.71997536e-01
  -1.11371960e+00  8.17008289e-01  1.03564485e+00  6.46296998e-01
  -1.84051133e+00  4.95981297e-01 -7.04430090e-01 -4.14873726e-01
  -8.11946720e-01  1.02091194e+00 -1.78034924e+00 -1.85565570e+00
   1.55395615e-01 -8.53594870e-01  3.86018700e-01 -2.27102419e-01
   9.42329695e-01  8.79957899e-01  6.75473758e-01  2.08079988e+00
   7.81161650e-01  2.04080182e+00 -2.27573474e-01  8.05295226e-01
   8.20003199e-01  9.45536949e-01  3.26407871e-01  1.93560947e+00
   4.84659647e-01 -1.98302019e-01  4.00215206e-01  5.91085846e-01
   3.61094062e-02  2.37507700e+00  1.28053074e+00 -3.05728674e-01
   2.84442340e+00 -2.12850752e-01 -2.05902100e+00  2.15267046e-01
   1.20182211e-01 -3.33099878e-01  2.22745710e+00  2.50695146e-01
   7.15368502e-02  3.98413680e-01 -1.20249532e+00  1.09973930e-01
   1.35245304e-01  1.24021341e+00 -2.13751956e-01 -1.80715845e+00
  -7.23150363e-01 -6.96952120e-01  2.24050558e-02  3.29529588e-01
  -7.31115419e-01 -4.27917051e-01  1.66326848e+00  8.28402367e-01
   2.06107647e+00  1.30994276e-01  2.52388736e+00  5.09219610e-01
   2.08151324e+00 -8.22650106e-01 -4.50180373e-01 -2.04959827e-01
  -6.29980103e-01  2.12466558e+00  5.16319819e-03  1.32967403e+00
  -6.69305261e-01 -4.48212382e-02  1.00166854e+00  2.77886799e-01
   1.21893465e+00  1.24895324e+00  9.52381784e-01 -8.98000135e-01
   7.77392558e-01 -1.77178892e+00 -2.08495868e+00  8.55389870e-01
   1.51126380e+00 -1.26302917e+00  1.82419321e-01  1.33188598e+00
  -2.97677642e-01  1.44191639e+00  1.27296670e+00  6.05235053e-01
   1.64378205e+00  4.24401427e-01 -1.30635203e+00 -8.30872262e-01
  -1.93000128e-02  2.07972933e+00  1.35093673e+00  1.73099423e+00
   1.13724982e+00  1.38817484e+00  1.26335484e+00 -6.11105198e-01
   1.32554748e+00  9.48303535e-01 -1.53008236e+00 -6.74966475e-01
   6.78452664e-01 -5.22068244e-01  6.15459327e-01  2.52108386e-01
   1.74552641e+00  1.54032757e+00  9.37968505e-01  2.43026243e-01
   1.38814554e+00  2.13928299e+00  3.13264776e+00  3.78831039e+00
   7.23276019e-01  1.66477683e+00  4.75807620e-02  8.87934992e-01
   1.95686893e+00  2.83569432e-01  2.52871207e+00  2.06426329e-01
   4.16579535e-01  6.93574871e-01 -3.21395679e-01  9.38675252e-01
   4.80034158e-01  9.08147567e-01 -1.44220379e+00 -1.55294117e-01
  -1.93637876e-01 -7.22826660e-01 -5.01303127e-02  1.35988816e+00
   5.51850679e-01  1.87133728e+00  8.82918446e-01  1.90552413e+00
   2.85557503e+00  7.79455263e-02  5.75510855e-01  7.84315118e-01
   1.16642172e+00 -9.22442113e-01  1.57842259e+00  1.54925447e+00
   3.84169541e-01  5.14277176e-01  7.74310350e-01 -2.95599431e-01
   1.29942317e+00  2.41835073e+00  2.74067802e-01  4.09074964e-02
   2.62816439e+00 -3.68022100e-02  3.52283590e-01 -5.25289599e-01
   3.32661810e-02 -7.86431176e-01 -8.52157023e-01 -9.31923055e-01
  -6.82318309e-01 -1.30289659e+00  3.04839060e-01 -2.04107576e+00
   1.22973338e-01  9.15722246e-02  1.03128951e-01  7.98075533e-01
   6.67076431e-01  2.27301825e-01  2.02399836e+00  1.53776078e+00
   1.28701025e+00  1.47738934e+00  2.40842914e+00  1.26701574e+00
   2.04612197e+00  5.87838348e-01  1.62357369e+00  9.62588822e-01
   4.48444688e-01 -1.67765995e-01  1.03628802e+00  8.33480117e-02
  -1.35391166e+00  1.30905012e+00  3.22166803e-01 -1.23941744e+00
  -8.55899752e-01  1.37336272e+00 -1.77922150e+00 -2.03128878e+00
   2.14577623e+00  1.36678239e+00  6.60016232e-01  6.45201120e-01
   8.13652969e-01 -8.18250593e-01  3.54476356e-01  1.54502742e+00
   6.16551459e-01  4.72453139e-01  1.65507614e+00  2.62100648e+00
   2.23639196e-01  6.91145778e-01  1.83620850e+00  9.42157336e-01
   2.10084484e-01 -5.99086525e-01 -1.15393749e+00  3.53145768e-02
  -4.80619949e-01 -3.35902764e-01 -6.80442786e-01  4.11654828e-02
   1.82825610e+00 -9.45921775e-01 -1.07656566e+00  7.40116441e-01
  -1.21821753e+00  2.41191205e-01 -1.72177349e+00 -1.10502898e+00
   1.73130348e+00  9.11715230e-01 -4.65026097e-01 -1.55882476e+00
   8.90401860e-01 -1.19364371e-01  1.37925204e+00  1.92792233e+00
   1.39125207e+00  7.94651463e-01  1.72381264e+00  6.74092533e-01
   6.74977677e-02  1.10898034e+00  7.69240259e-01  1.10358331e+00
   4.52951027e-01  1.41274495e+00 -5.02475333e-01 -1.20924448e-01
  -8.84364252e-01  4.46512956e-01 -1.12346530e+00 -2.87275068e-01
  -1.61769488e+00  6.27754850e-01 -9.07227989e-01 -2.03001421e+00
   6.08694709e-01 -4.05813309e-01 -4.59093404e-01 -1.76876889e+00
  -9.53827968e-01 -8.44670697e-01 -1.42273517e+00 -7.96010790e-01
  -5.36153378e-01  2.02030327e-01  5.35699311e-01  1.39080358e+00
   6.38223910e-02 -2.51254763e-02  4.37133645e-01 -5.98133866e-01
   1.68059571e+00  5.42126012e-01 -2.58728825e+00 -6.52672800e-01
  -1.10204051e+00  2.26261199e+00 -8.66256887e-01 -2.28974182e+00
  -1.23402207e+00 -7.30426643e-01 -8.89565222e-01 -1.59901354e+00
  -6.16378861e-01 -7.09358342e-01 -1.91282321e+00 -2.95124082e-01
  -1.08405579e+00 -3.24996062e+00 -9.85945234e-01 -4.44210302e-01
  -1.95808022e+00  2.66539699e-01 -2.56242338e-01 -9.38279355e-01
   2.80237209e-01  9.25560442e-01 -1.06146006e+00 -1.04633449e+00
  -1.06845800e+00 -7.80724185e-01  5.75453801e-01 -3.12579322e-01
   6.27569786e-01 -6.12522542e-01  6.68912070e-01 -2.09203365e+00
  -1.36979268e+00 -1.55995970e+00 -1.90336198e+00 -1.24232179e+00
  -1.42865364e+00 -2.47908261e+00 -1.12503144e+00 -1.48544800e+00
  -4.23867834e-01 -4.01506323e-03  4.00382100e-01 -6.26881405e-01
  -7.00766167e-01  5.74102196e-01  1.21748004e-01 -1.75155973e+00
   1.07989003e-01  2.02248443e-01  1.58806186e+00  8.19379949e-01
  -2.70849423e+00  8.66734313e-02  1.57016636e+00 -2.00954752e-01
   1.55165030e+00 -8.48847452e-01 -2.39594836e+00 -5.67992880e-02
   2.44992420e+00 -1.84806469e+00 -5.21987686e-02 -1.69819594e+00
  -1.58963990e+00  4.76737391e-01 -1.66409117e+00 -2.31816625e+00
   2.20484982e-01 -9.79666901e-01 -1.94351066e+00 -1.22962130e-01
   1.28299061e+00  2.06684193e+00  1.67536462e+00  1.64378283e+00
   2.25914149e-01 -4.69835312e-01  7.30329193e-01 -8.17408007e-01
  -4.19236924e-01  1.01718978e+00  6.31760694e-01  8.16174101e-01
   7.70215126e-01 -1.73166848e+00  2.21577447e-02  1.44428938e-02
  -6.76166541e-01 -3.69795745e-01 -1.24492760e+00  2.97808310e-01
   6.56565077e-01  1.17428396e+00 -7.36924991e-01 -9.14162655e-01
  -2.72300133e-02  7.66493532e-03 -1.00495372e+00  3.84880689e-01
  -6.66992950e-01 -4.16241783e-01 -2.43343029e-01 -3.46064306e-01
   8.12120507e-01 -1.42942463e-02  3.84969030e-01 -1.02478817e+00
  -1.89794367e+00 -1.20741940e+00 -2.69054202e+00  6.28345037e-01
  -2.07228585e-01 -7.83595227e-01  7.63556695e-02  1.47802068e+00
  -1.07372634e+00  1.17828154e+00  1.00389644e+00 -1.18838459e+00
   1.07338867e+00 -7.63545811e-01 -2.38567605e+00 -3.37026311e-01
   1.45799009e+00 -7.38698082e-01  1.00941256e+00  1.76955781e+00
   1.75344149e+00  3.40263268e-01 -1.69877985e+00 -9.31813272e-01
   2.71998050e-01  1.13289772e+00 -2.13330832e-02  2.36197541e-01]
 [-3.95130144e-01 -6.77154031e-02 -4.71909812e-01  7.28425119e-02
   1.05237839e+00 -1.64781993e+00 -7.90759381e-01  6.64529702e-01
  -2.78379316e-01  1.90085690e-01  9.69280628e-01 -1.17945823e+00
  -4.08732162e-01 -8.27946320e-01 -8.59555255e-01 -1.14314140e+00
   9.57179303e-01 -4.81566018e-01  5.68653239e-01 -3.02007469e+00
   3.75387410e-01 -6.54612362e-01 -1.03768772e+00  1.39970693e-02
  -8.35473382e-01 -3.86883209e-01 -3.79676148e-01 -7.12409371e-02
   7.78589842e-01  1.29844983e+00  1.27644362e+00  6.56059238e-01
   5.41083920e-01 -1.18363661e-01  5.28603509e-01  1.01678235e+00
  -4.10690185e-01  7.96500616e-01 -6.81151321e-01 -1.02615565e+00
   5.82605850e-01  1.61151834e-01 -2.25126613e-01 -1.74488290e+00
  -1.73394378e-01 -1.09934040e+00 -5.33298786e-01  3.26920472e-01
  -2.02377857e+00 -1.10684994e+00  1.34293566e+00  8.66283937e-01
  -8.59055548e-01  9.00305565e-02 -1.30812605e+00 -5.37842770e-01
  -1.00902859e+00 -5.61465840e-01 -1.56264818e+00 -6.82235358e-01
   1.32790561e-01  1.40752371e+00 -4.63417518e-02  1.98296993e-01
  -8.60013002e-01  6.04156680e-01  4.62465008e-03 -1.15441151e+00
   2.07314775e+00 -1.57906414e+00  1.81738391e-01  1.08417655e+00
  -3.08544227e-01  1.40080041e-01  8.27384724e-02  9.44738313e-01
   9.88310063e-01 -6.00150697e-02 -1.57609663e+00  5.25982738e-01
   3.14677510e-01 -1.56567463e-02 -8.29797378e-01 -1.70281331e+00
   4.70241966e-02  8.38567165e-01 -1.18846586e+00 -3.87527340e-01
  -6.65029586e-01 -2.43238843e+00 -3.02386440e-01 -7.07217509e-01
   9.81005141e-01  1.04687561e-03 -3.35443648e-01 -6.88843412e-01
  -3.83161097e-01  4.66929821e-01 -3.91396693e-01  1.30777441e+00
   7.83161318e-01  1.74915264e-01  6.79409820e-01  1.18189323e+00
  -9.41564461e-01  2.77904765e-02 -6.20646515e-01  7.67601884e-03
   1.31585816e+00 -2.02119729e+00 -1.26980634e+00  1.76481943e+00
  -5.68197174e-01  7.57917532e-01  3.91857133e-01  5.48030368e-01
   1.04186522e+00  9.47793928e-01  2.00988122e-01 -1.11652085e+00
  -8.55144685e-01 -1.86564929e-01 -8.41054567e-01 -6.18017318e-01
   1.62373514e-01  3.71808303e-01 -3.19240341e-01  8.33202276e-01
   3.52150011e-01  8.75605306e-01 -3.39263643e-01  6.59018322e-01
   1.27543909e+00 -1.14563006e+00  6.19842404e-01 -1.96271331e+00
   6.14435748e-01  2.31997653e+00  1.16164487e+00 -6.29257533e-01
  -2.38794096e+00  4.20255300e-01  1.14964404e-01  9.63616530e-01
   2.53519723e-01 -5.28903584e-01  9.30160927e-01  2.51087900e-01
  -6.84993532e-01  3.73712342e-01 -9.17212508e-01 -1.88977184e+00
  -3.38157898e-01 -1.85285476e+00 -1.23994953e+00 -9.42342493e-01
  -1.26923259e+00 -2.47654637e+00  1.75202719e-01 -3.84669657e-01
  -4.19717400e-01 -6.96548570e-01 -1.11860632e+00 -1.11441016e+00
   4.55185124e-01  1.16306009e+00 -1.44499956e-01  6.39198267e-02
  -1.04347945e+00  3.34678192e-01  7.48996960e-01 -2.14654546e+00
  -7.35529485e-02 -3.11805891e-01 -1.89587137e+00  5.57847012e-01
  -8.28618779e-01  1.32379894e+00 -1.88002529e+00  4.36766276e-01
   2.60276165e-01 -1.43399994e-01  8.24258350e-01 -5.19411134e-01
   1.09862460e+00  9.83519162e-01  6.24966945e-01  1.26237033e+00
  -7.65695588e-01 -5.05430431e-01 -1.19752522e+00 -2.02652257e-01
  -2.47840230e+00 -2.72255622e-01 -3.82188406e-01 -5.09570814e-01
  -1.28332983e-01  1.56010092e+00  1.95461772e+00  4.60852026e-01
  -1.53713062e-01  2.87884848e-01  1.40483315e-01  6.09828269e-01
  -4.22019497e-01 -8.69849135e-01  1.96590852e+00 -4.62671017e-01
  -7.44243015e-01 -7.81822065e-01  1.21723227e+00  9.83530351e-01
   1.59219024e+00  1.37934424e+00  1.01116324e+00  6.10253322e-01
   4.06333989e-01 -1.25932347e+00  1.53690748e-01 -1.73324307e+00
  -1.67523331e+00 -1.84194815e+00 -5.67074856e-01 -6.47321634e-01
   7.92161092e-01 -1.63362213e-01 -1.51478521e-01  8.68068097e-01
   7.70618142e-01  2.64359060e-01 -6.78010898e-01 -6.60373755e-01
  -1.87296804e+00  1.45579424e+00 -4.50989534e-01 -1.68474861e-01
   2.61312756e-01 -3.99843874e-01 -4.78128472e-01 -1.28002300e-01
   2.85118143e+00 -6.02038153e-01  2.33679589e+00  5.14759060e-01
  -1.69491743e-01  1.24095966e+00 -1.39431442e+00 -5.03060338e-01
  -1.65457294e+00 -1.31715284e-01 -7.56146132e-01 -1.80864252e+00
   4.34066325e-01  1.63675281e+00  5.85508216e-01 -6.22676796e-01
   8.45749234e-02 -4.41188087e-01  1.54740778e+00 -7.76479379e-02
   1.86957858e+00  4.44647944e-01 -2.87199111e-01  1.46411460e+00
   9.12059352e-01 -7.50080985e-02  6.02049992e-01  1.57635629e+00
   1.59255415e+00  4.57450009e-01  1.47738000e-01  1.51721018e+00
   3.63959229e-02  2.12959553e+00  3.59357881e-01 -4.37788507e-02
  -7.58707484e-01 -1.11817593e+00 -6.10759249e-01 -4.60539568e-01
   2.36102793e+00 -2.87836257e-01 -4.77338350e-02 -7.65517003e-01
   1.75758924e-01 -1.56521928e+00 -7.46206319e-01  5.45005734e-01
  -1.52438742e+00  2.31837010e+00  6.20694109e-01 -1.18894467e+00
  -1.53803522e+00  7.70794726e-01  9.26317330e-03  1.38927938e+00
   1.76597264e+00  8.71494297e-01  1.82332459e+00 -4.66764325e-01
   1.86112594e+00  4.38282157e-01  8.82346412e-01  3.55449430e-01
  -6.12088809e-02  2.98583180e-01 -5.37765405e-01  3.02603124e-01
   1.82872664e+00  1.02834517e+00  1.36392913e+00  1.69845571e+00
   3.66845754e-01  1.23404093e+00  2.76689690e-01  1.10551573e+00
  -1.55560239e+00 -1.04751510e+00  4.42649288e-01  1.71680777e+00
  -1.24277683e+00 -2.19393820e+00 -2.78287543e-01  1.58856965e+00
   1.95469393e+00  1.77980529e+00  1.49543185e+00  2.60511661e-01
   1.41987523e+00  8.22117735e-01  1.08506040e+00  5.51916368e-01
  -2.58676019e+00 -4.50669628e-01  8.09461474e-01 -6.83006659e-02
   6.05338976e-01  8.91644641e-01 -1.41821590e-01 -9.08441966e-01
   2.94908661e+00 -6.26449829e-01  1.10708513e-01 -1.80045898e-01
  -8.06263183e-01 -1.36524961e+00 -1.80129689e+00 -1.61048621e+00
  -2.92494874e+00  3.69698219e-01  4.89871307e-01  2.53353976e+00
   1.75860166e+00  2.27325625e+00  1.75077981e+00  1.48348363e+00
   2.10341550e+00 -7.96042320e-01  9.89544876e-01 -6.66432425e-01
  -3.81388704e-01  3.02134517e-01 -1.97872397e+00  6.84835740e-01
   4.20711917e-01 -9.41557997e-01  1.17249922e+00 -1.86172393e-01
   3.85975350e+00  1.99474608e-01 -3.57226745e-01 -1.44140337e+00
  -4.56160714e-01 -1.31716377e+00  7.20207590e-01 -2.31091334e+00
   1.73105549e-01 -1.87421074e+00  1.64014649e+00  8.40334068e-01
   1.73291239e-01 -2.98041319e-01  9.60160003e-01 -7.64256721e-01
  -8.07568023e-01  2.38827142e-01  1.11210771e+00 -9.26413360e-01
   1.53647535e+00 -1.33179765e+00  5.77423636e-01 -2.87581797e-01
   8.38858485e-01  6.13422564e-01  6.25463470e-01  8.14319822e-01
   1.46661243e+00 -2.38603980e-01  1.33632631e+00 -1.94666457e+00
  -9.38181338e-01 -7.12468315e-01 -1.80526204e+00 -1.40493077e+00
  -7.68319463e-01 -4.96488046e-01  9.36950070e-01 -3.55053691e-01
  -5.34414276e-01 -3.07873832e-01  1.36218625e-01  2.11724471e+00
  -5.84682079e-01 -4.60133889e-01 -6.15424405e-01 -2.51761817e+00
  -1.22841193e+00 -4.36516922e-01  7.72221506e-01 -5.62228616e-01
  -4.59301243e-01 -3.21807002e-01  5.62571591e-01 -3.49586627e-01
  -4.27811560e-01  1.04906200e+00  1.06776654e+00 -1.44946773e+00
  -2.07350293e+00  7.56070829e-01  9.09276274e-01 -1.38224254e-01
  -1.77750679e+00 -1.52830372e-01 -1.64632471e-01 -8.57831993e-01
   1.73313895e-01 -7.73965182e-02  5.40658383e-01  1.71179174e+00
   3.24282898e-02  1.02826450e+00  8.42297188e-01 -2.59800874e+00
  -1.49122803e-01  9.48308717e-02 -1.11839963e+00  9.00238287e-01
   1.14831975e+00  2.70606337e-01  1.22525267e+00  5.38695552e-01
   1.13834394e+00 -3.77630496e-01  1.93099742e-01  2.01273372e+00
   1.23858679e-01  6.38539178e-01  1.02183123e+00 -3.82326969e-01
  -4.88021942e-01 -2.12652165e-01 -2.22662415e+00  1.08191769e+00
   1.22331422e+00 -1.45540691e+00 -2.97055783e-01  1.40850277e+00
   1.77472627e+00  1.12263127e+00 -2.01459323e-01 -3.28544538e+00
  -1.25498631e+00  1.35817112e-01  5.31903531e-01  3.54382758e-02
   1.09094259e+00 -5.15265175e-02  6.22624581e-02  2.40775529e-01
  -2.34023977e-01  8.39771059e-02 -2.17595932e+00  7.28039724e-01
   3.06694573e-01 -1.18784429e+00 -4.20539453e-01 -2.29202226e-01
   7.67697957e-01 -6.70512309e-01  6.54224568e-01  6.86502019e-01
  -5.62898620e-01 -4.93602000e-01  2.04032634e+00 -4.94501989e-01
  -1.42580573e+00 -1.26884989e+00 -2.14173145e+00 -2.46371638e-01
  -9.68028645e-01 -6.28383129e-01 -1.10642405e+00  1.30259762e-01
  -1.16022289e+00  6.53894818e-01 -2.13442018e-01 -8.36519781e-01
   4.61371771e-01 -5.62053264e-01 -5.73544445e-01  1.12238540e+00
  -2.20981933e+00 -8.59547428e-01 -5.09345353e-01 -1.29853817e+00
  -1.74073135e+00  9.27588833e-01  8.62888518e-02  6.23994506e-01
   8.63139315e-01  2.13903290e+00  6.15185755e-01  6.22166334e-01
  -1.40560794e+00 -1.90287297e+00 -3.47404397e+00 -8.02623426e-01
  -1.14643827e+00 -4.83071521e-01 -6.39266190e-01  9.27094821e-01
   1.54627583e+00  3.47933782e-01 -4.82663107e-01  7.08359353e-01
   7.30910585e-01  1.58178848e+00 -2.61541767e+00 -2.24563567e+00
  -1.68415635e+00 -9.30403397e-01 -1.31556031e+00 -7.06008755e-01
   8.02686143e-02 -9.74132337e-01 -8.30029312e-01  5.24103574e-01
  -5.22962369e-01  1.00238213e+00 -3.19217999e-01  2.45257626e-01
  -1.95965652e+00 -1.60069687e+00 -7.30819100e-01 -2.47712615e+00
   5.92507533e-01  1.36574018e-01  2.81506765e-01 -6.40669794e-02
  -6.63160143e-01  5.86149943e-01  7.18681512e-01  6.60009335e-01
  -1.10129684e+00  6.21626011e-01 -1.15925200e+00 -1.49287460e+00
  -2.60545612e+00 -2.20679144e+00 -2.29887025e+00  9.95723659e-01
   2.40077945e-01 -1.65740944e+00  6.87626123e-01 -4.44169479e-01
  -7.97253958e-01 -1.84397797e+00 -1.77229815e+00 -9.14188855e-01
  -2.75286355e+00 -8.93863430e-01  1.39943029e-01  7.76405164e-01
  -1.75967557e+00 -1.36022816e-01  7.27816362e-01 -6.47164296e-01
  -8.00455931e-01 -6.96619096e-01 -6.39537458e-01 -1.82651537e-01
   1.00133395e+00 -6.82734979e-01  3.33710981e-01 -9.55937337e-01
  -1.20022800e+00  2.16422130e-02 -6.07891055e-01  1.15886853e-02
  -2.15295334e-01 -5.30589302e-01 -2.08990460e-02 -1.89594534e+00
  -2.35118557e-01 -1.77961245e+00 -1.29747539e+00 -1.47528981e+00
   1.14113027e+00 -8.47542832e-01  9.35972960e-01 -1.43144330e+00
   1.20936392e-01  1.66887950e+00  1.79266578e+00  5.05199569e-01
   6.41592840e-01 -4.76684262e-02 -1.09489017e+00 -1.85542800e+00
  -7.20771461e-01  7.22949360e-01 -2.53318438e-01 -6.58977363e-01
   4.38312243e-01 -1.04772861e+00  3.12512999e-01 -1.25738867e+00
   1.08904613e-01 -1.11189323e+00 -4.41179113e-01  1.19889737e+00
  -3.23897886e-01  1.07914727e+00 -2.91239137e+00 -2.03851107e+00
  -1.19769071e+00 -2.37022089e+00 -1.68182152e+00 -9.16056607e-01
   3.60952358e-01  9.65710945e-01 -1.09537661e+00 -3.00811224e-01
  -1.65400346e-01  4.11415477e-01 -6.68601951e-03  5.96932470e-01
   2.13789729e+00  2.92641571e-01  5.85055396e-01 -6.34238590e-01
  -8.98286961e-01 -1.51396006e+00 -2.84275358e-02 -5.45988017e-01
  -1.13061571e+00 -8.72396429e-01 -1.76617358e+00 -1.29445930e+00
  -2.22845852e+00 -3.89645932e-01 -2.22121227e+00 -1.42127617e+00
  -1.00642638e+00  1.48336186e+00  3.68984209e-01 -5.63641472e-01
   1.60777037e+00 -6.41540709e-02 -1.34467813e+00  6.44794380e-01
   1.69324753e-01  4.69572244e-01 -1.29890900e+00  1.08326994e-01
  -2.23425109e+00  3.37601307e+00  4.26858502e-01  9.29847146e-01
   2.22626298e+00  7.20012689e-01 -1.45582056e-01  3.20170445e-01
  -1.98575418e+00  8.92661241e-01  1.21512834e+00  2.50674822e-01
  -3.44916145e-01 -1.45533506e+00 -8.56262242e-01  1.36846704e-02
   5.35936880e-01  6.26289857e-01  1.82369726e-01 -5.18869599e-01
  -2.46200175e-01 -1.97044791e-01 -1.65364612e+00 -6.41382024e-01
   1.15899033e+00  1.45194774e+00  4.95725545e-01 -7.08893657e-01
   1.95494408e+00  3.53701193e-01  1.36783392e+00  9.00470298e-01
   6.32468798e-01  1.41864665e+00  8.07126659e-01  2.13432940e+00
   1.14342449e+00  1.54370229e+00  1.50735895e+00  8.76960114e-01
   2.35071872e+00  1.01248224e+00  1.29317515e+00  1.75934721e-01
   2.25807878e-01  3.86272066e-01  2.23061436e+00  7.60727783e-01
  -1.42235252e+00 -1.43995584e+00  1.46071635e+00  1.17126236e+00
   5.99567446e-01 -1.28391452e+00 -7.97709290e-01 -1.36223976e+00
   1.92314779e+00 -3.92014027e-01 -1.22386023e+00  7.68898342e-01
   3.45605769e-01  2.29287396e+00  1.63033371e+00  1.32077589e+00
   1.48666226e+00  1.14907380e+00 -1.92077991e+00  5.43202382e-01
   1.54438184e+00  8.73803990e-01  1.02172956e+00  1.71167919e+00
   1.29356912e-01  3.34471433e-01 -7.37711051e-01 -1.87547329e+00
   1.98744367e+00  1.80246250e+00 -3.54436684e-01  1.80430499e-01
  -1.25745560e+00 -8.60217144e-01 -2.03396795e+00  1.99727367e+00
  -1.70447249e-01  4.76471269e-01 -9.22135446e-02  1.55733278e-01
   8.43682094e-01  6.60574659e-01  1.50277570e+00 -5.77222684e-01
   6.21670050e-01 -1.27209038e+00  2.67692022e+00 -4.98356818e-01
  -1.83097743e+00  7.93290350e-01 -3.82781747e-01 -1.98760646e-01
   2.66422729e-01 -6.85551411e-01  5.90962887e-01 -4.18905520e-01
  -8.86945663e-01  3.89066821e-01  4.01386958e-01  6.21663297e-01]
 [-1.50006080e+00  3.73921408e-01 -7.45565034e-01  1.83933787e+00
  -1.02086529e-01  1.69752307e+00  1.62958198e-01  1.57408370e-02
  -1.20226393e+00  1.69151098e+00 -8.94634317e-01  1.02978171e+00
  -8.58399978e-01 -1.69750897e+00  4.97072333e-02  1.56794116e+00
  -1.29259219e+00  9.71086351e-02  1.17303744e-02  5.69753323e-01
   4.08181744e-01 -1.69891930e+00  9.37509850e-01  3.05321366e-01
  -1.42937587e-01  4.56076540e-01  1.25382419e+00 -9.05255278e-01
   1.11051728e+00  6.28046451e-01  1.38461646e+00 -1.41659437e+00
  -8.05944641e-01  1.18910847e+00 -1.79845522e+00 -2.05037143e-01
   1.98273837e-01 -2.48208017e-01 -1.33326121e+00  6.72608839e-01
  -2.77364832e-01 -2.96916469e-01  5.97383336e-01 -1.17496131e+00
   1.13583311e+00 -7.88973540e-01  4.66009690e-01  2.58407687e-01
   4.72833201e-03 -9.65020990e-01  6.40376265e-01 -1.15617989e+00
   4.03232472e-01 -1.31416201e+00 -1.52174717e-01 -8.32772853e-01
  -8.56699904e-02  7.54024968e-01 -2.10293821e-01  1.81470034e+00
  -6.04597796e-01 -5.81582842e-01 -9.66585797e-01  8.29834192e-01
  -3.68252792e-01  1.16968310e+00  3.68852905e-01 -1.43131298e+00
  -1.19475592e+00  5.46224327e-03 -1.06316189e+00 -6.96884501e-01
   1.06452028e+00  5.06674340e-02  4.63598530e-01 -9.73395119e-01
   1.10096612e-01  4.11882177e-01  3.71673916e-01 -1.81436632e-02
   1.15751859e-01 -1.76545673e+00 -6.95821939e-01  3.31853418e-01
   7.48401451e-02  1.85014072e-01 -8.52860205e-01  1.71404015e+00
  -1.85097622e-01 -1.12223822e+00 -2.11500009e-01 -1.37227804e+00
   1.25236822e+00 -1.19152168e+00 -1.69336173e+00 -5.45790612e-01
  -5.22995207e-02  1.40820400e+00 -5.39311441e-01  9.03037265e-01
  -9.25647011e-02 -1.09196321e+00 -2.88873863e+00 -2.14070859e+00
  -1.01971318e+00 -1.09450898e+00 -6.30326440e-01 -4.55758243e-01
  -7.41114184e-01  1.66103430e+00 -4.96965431e-01  9.18671227e-01
  -1.55990674e-01 -1.91210259e-01  5.17715094e-01  2.82568608e-02
   1.33260445e-01  7.57712668e-01 -4.42132730e-01 -1.54966449e+00
   5.57058445e-01  1.10489553e+00  1.43480281e+00  1.03739151e+00
  -1.08642283e+00  4.20453963e-01  2.23423303e-01  1.17947871e+00
  -6.76081291e-02 -6.34942460e-01  9.25047943e-01 -1.07872585e+00
   3.00527852e-01 -1.33447679e+00 -9.15744196e-01 -2.50210050e+00
  -1.45543139e-01  7.49231411e-01  1.53198641e+00 -1.07351108e+00
   5.68501093e-01 -3.71271413e-01 -5.88971717e-01  1.08608526e+00
   7.58920462e-01 -5.29025135e-01  2.32851571e-01  4.30415452e-01
  -2.15007987e-02 -1.18671119e+00  1.59797440e-01  1.03442713e+00
   1.10053204e+00  8.82151742e-01  9.01117264e-01  2.43039153e+00
  -1.82101575e-01  2.11038493e+00  1.23544874e+00 -7.78343336e-01
  -9.05962206e-02  7.65518357e-01 -2.08884146e+00  6.35422094e-01
  -7.14089401e-01 -1.36800355e-01  1.54530686e+00  6.91616803e-01
   7.05847017e-01  2.55560039e-01 -1.08278955e+00  1.01512105e+00
  -3.56854578e-02 -4.01020951e-01 -6.29427600e-01 -1.09745582e+00
  -1.56864930e+00 -1.73547414e+00  1.92817208e+00  8.85498219e-01
  -7.33366517e-02  2.66042072e+00  1.66689993e+00 -4.36488711e-01
   6.64677901e-01 -7.63196713e-01  8.62607903e-01  2.39002515e+00
   1.02744666e+00 -9.47676670e-01  2.27804652e+00  1.76226011e+00
   2.36457921e-01 -3.57980160e-01 -1.45162463e+00 -8.04763757e-01
   6.74026489e-01 -2.12779232e-01  5.03067071e-01 -7.46873889e-01
  -1.39783094e+00 -1.52856304e-01 -1.60107222e-01  3.31060829e-01
  -3.93697010e-02 -4.14745520e-01 -6.65500525e-01  1.06074139e+00
  -1.37258976e-01 -1.40534262e-01 -3.89425397e-01 -5.19366334e-01
  -1.92982360e-01  3.37011382e-02  3.15391402e-01  1.60604629e+00
  -2.60131649e-01  2.15660857e+00  1.22144349e+00  2.16356365e+00
   4.80182828e-01  3.43250916e+00  6.69011573e-01 -1.16110412e+00
  -3.96483323e-01 -1.15029151e-01 -7.32677794e-02  3.12165962e-02
   2.13195274e+00  9.41213753e-03  5.60345240e-01  2.10873340e-02
  -9.37101007e-01 -7.65855750e-01 -1.30802182e-01 -9.38837497e-01
   5.13541014e-01 -3.03948203e-01 -1.96632158e-01  5.49976018e-02
   2.33041547e+00  3.53680017e-01  6.85603810e-02  1.86259360e+00
  -7.18405127e-01  1.91275157e+00  1.03536527e+00  4.66989629e-01
   6.23181548e-01  3.31569030e-01  2.44475004e-01  1.99934466e+00
   1.15565902e+00  1.76914042e-01  1.28703036e-02  1.25404282e+00
  -7.58628868e-01 -1.33873770e+00  1.40708653e+00  2.39355074e-01
   3.43263458e-01 -8.30407622e-01 -4.66446215e-01  7.23677307e-01
  -1.04891243e+00 -2.45767572e-02 -6.75077708e-01  3.69358348e-01
   6.50223385e-01  5.50561096e-03  1.35591677e+00 -2.01284455e-01
  -3.76991198e-02  1.56811404e+00  1.54303900e+00  2.46674979e+00
   1.08392690e+00  1.24504299e+00  8.91778623e-01 -8.54703346e-01
  -5.02237218e-02 -2.06460401e+00 -2.99249319e-01  6.75606288e-01
  -4.08619248e-01 -8.88261590e-01  1.19285632e-01 -1.15350670e+00
  -3.61342113e-01 -3.72804366e-01 -5.30599067e-01  2.41896925e-01
  -6.41846844e-01 -2.96665440e-01  6.41506660e-01 -3.79504639e-01
   3.71932540e-01  1.64928984e+00  3.05810223e-01 -1.55704513e+00
   2.01061204e+00 -9.70155063e-01 -3.81897071e-02  3.68078698e+00
   3.98888976e+00  2.64695325e+00  1.02671208e+00  3.20542803e-01
  -2.05781740e+00  3.52818362e-01  1.65541742e-01 -6.45709774e-01
   3.35336020e-01 -1.44372205e+00  4.97942736e-01 -2.01687388e+00
  -8.40003101e-01 -1.98985354e+00 -8.67185986e-01 -6.51297387e-01
  -1.43445978e+00  1.07795338e+00  8.19766106e-01 -1.23150620e+00
  -1.32262127e+00 -1.08347701e+00 -1.61405977e-01 -1.34918758e+00
  -3.51105791e-01 -1.78562381e+00 -8.34971816e-02  2.63184336e+00
   2.57762926e+00  4.18999935e+00  6.67374011e-01  2.71277375e-01
  -1.56817375e+00  1.76195973e-01 -1.64868015e+00 -8.59109207e-01
  -1.27108044e-01 -5.92530313e-01 -2.31188247e+00 -3.92993888e-01
  -3.27572622e-01  2.67063728e-01 -4.81858942e-01 -1.82277018e+00
   5.50204078e-02  1.75970605e+00  1.42550489e+00  7.31112769e-02
  -1.22168913e+00 -2.14850680e+00 -2.65432772e+00  2.53244563e-01
  -5.88172749e-01 -8.64362448e-01 -7.94677366e-01 -7.72982127e-01
   6.36005850e-01 -1.28719786e+00  5.60624281e-03  2.44665641e-01
  -1.20212315e+00 -1.06853013e+00  1.22717640e+00  5.64550128e-01
  -2.18620866e+00 -2.03017782e+00 -1.37615507e+00  2.99319800e-02
   6.97364835e-02 -1.05895459e+00 -2.28783970e-01 -3.15849286e-01
  -1.12762199e+00  9.42025438e-01  1.08764253e+00 -1.72885298e+00
  -5.91365401e-01 -1.98882147e+00 -6.06807155e-02 -2.09480620e+00
  -5.73130753e-01 -2.47186406e+00 -2.23122541e+00 -1.93162674e+00
  -1.78767154e+00 -1.21685537e+00 -1.76688683e+00  8.08635938e-01
   6.10680823e-01  6.54081124e-01  2.48151659e-01  3.69987759e-01
  -1.59367149e+00  4.91672829e-01  7.85064611e-01  3.61378281e-01
  -1.81439216e+00 -5.70779145e-01 -2.21133053e-01  6.38332433e-02
   1.12484477e+00  1.10504519e+00  9.10565021e-01 -4.33449806e-01
  -1.32127070e+00 -2.37779567e+00 -6.82688560e-01 -1.63695718e+00
  -2.13755135e+00 -5.33980593e-01 -1.85952728e+00 -8.55953726e-01
  -1.40570399e+00  3.28450593e-02 -3.27572020e-01 -1.84277486e+00
  -1.14598253e-01  9.32726456e-01  4.25873843e-01 -1.23943937e+00
   2.84597722e-01 -7.06815279e-01  1.80836928e-02 -1.00760473e+00
  -2.68280961e-01  1.97095799e+00  2.65237338e-01 -2.08546471e+00
  -1.30990360e-01  1.75138975e+00  3.41946633e-01 -2.36107500e+00
  -6.83628518e-01 -2.56598214e+00 -7.04974173e-01 -5.87795962e-01
  -1.62771809e+00 -2.74551929e-01 -2.52626916e+00 -1.68298427e+00
  -6.07211324e-01 -6.40005799e-01  7.17998034e-01  1.26076580e+00
  -7.04675270e-01  1.24082102e+00 -1.36107034e-01  1.68665515e-01
   2.56799506e+00 -1.70268775e+00 -4.98415479e-01 -1.39049937e-01
   2.16980814e-01  3.41361335e-02 -1.13310373e-01  1.20283071e-01
   7.81549822e-01 -4.30817739e-02 -1.08812490e-01 -1.48945729e+00
  -1.63504893e+00  1.42537523e+00 -8.21641605e-01 -6.87119658e-01
  -1.07377476e-01 -5.02914608e-01 -8.35332069e-01 -5.28549665e-01
  -2.78481707e+00  1.41516958e+00  7.04210298e-01 -9.69151159e-01
   1.03309722e-01  1.19227674e-01  9.78968700e-01 -2.84274048e-01
   3.09248440e+00  2.20550266e+00  1.25732036e+00 -1.90704015e+00
  -8.80533964e-01 -7.36102429e-01 -7.66821354e-01 -2.02600189e+00
  -3.18820764e-01 -1.87953855e+00 -3.44582454e-01 -1.54999977e+00
   1.53635162e-01 -1.63298099e+00 -1.22758245e+00  1.21697537e+00
  -8.29675486e-01  3.09579725e-02  3.36065834e-01  1.87654151e+00
  -5.55305479e-02 -5.09036514e-02  1.62595803e+00 -1.07686617e+00
  -2.04650801e+00 -1.77239793e+00 -1.54557320e+00  2.72677344e-01
   1.69793554e-01  1.90459538e+00  2.02069919e+00 -4.85469503e-02
   1.52065726e+00  1.54639622e+00  4.30400880e-01 -2.46258560e+00
  -3.25045389e-01 -5.39378413e-01  1.37937602e+00 -8.59782714e-01
  -4.06941337e-01  9.17374294e-01 -1.08110274e-01  3.20254523e-01
   1.31385878e+00  6.05030077e-01  3.07284964e+00  2.73808999e+00
   2.31643310e+00  1.41291803e+00  4.21012912e-01 -1.25622436e+00
  -1.89430353e+00 -1.24974940e+00 -1.44680439e+00  9.60181587e-01
   2.42610011e+00 -1.74107534e-02  1.93795678e+00  2.65244551e-01
   2.60978033e+00  1.37758999e+00 -5.39723599e-03 -1.38297671e+00
  -2.33489910e+00  5.30719739e-01 -5.93627462e-01 -1.16559011e+00
   9.05846998e-01  6.96721560e-01  1.13895823e-01  1.29028882e+00
   1.12399071e+00  2.50199257e+00  2.54134167e+00  8.46621427e-01
   2.04489907e+00  1.55808115e-01  4.92915382e-01 -9.41756241e-01
  -9.01301902e-01 -1.60605945e+00 -3.64655869e-01 -4.65014827e-01
   1.15532739e+00  2.89644152e+00  2.04214961e+00  1.21977083e+00
   1.05125456e+00  1.21626194e+00  2.54764419e+00  2.19641801e+00
   3.20068069e-01 -1.04573734e+00 -3.77447699e-01  1.05716484e+00
  -1.97650017e+00  5.65238405e-01  2.46079156e-01  1.33119954e+00
   2.65634021e+00  2.54920105e-01  2.05502460e+00  3.37421454e+00
   1.72501415e+00  6.49453379e-01 -2.39469187e-01  1.39489158e+00
  -7.20299546e-01  2.44029502e-01  4.78308035e-01  1.14558287e+00
   1.76602365e+00  3.79163852e-01  3.64231546e+00  2.02763326e-01
   1.24201092e+00  3.70952514e-01  2.98478814e-03  2.16252587e+00
  -1.31419744e+00  3.00764328e-01 -3.70570718e-01  1.44089229e-02
   7.15212868e-01 -3.95381093e-01  3.22443832e+00  1.27505415e+00
   7.53813320e-01  2.55756637e+00  4.75477810e-01  2.55284055e+00
  -3.19398128e-01 -1.91965190e+00  7.74588028e-01  9.30493437e-01
   1.60971651e+00  7.30060700e-01 -4.06834341e-01  9.81339601e-01
   1.74231946e+00  5.70171137e-01  1.13699059e+00  8.05252413e-01
   2.44719116e+00 -8.20683498e-02  2.77872890e+00  1.91831238e+00
   1.43661448e+00  2.53330404e+00 -1.85045352e-01  1.40349229e-01
   6.56689344e-01  9.44647163e-01  4.36425322e-01  1.47200663e+00
   1.04119355e+00  1.62867641e+00  7.28510981e-01  5.67158564e-01
   1.20160757e+00  2.45713387e+00  1.09255004e+00 -5.56019343e-03
  -4.33297721e-01  5.76876294e-01  5.18624281e-01  4.90083128e-01
   9.24803706e-01  4.57805626e-01 -7.66948431e-01 -1.06686914e+00
  -9.81289088e-01  1.37891401e+00 -3.09200875e-01  2.37847185e+00
   1.93111814e+00  2.98478125e+00  1.55189143e+00  2.64040557e+00
   1.58336782e+00  2.59071372e+00  1.62683148e+00  1.06718424e+00
  -3.34367091e-01 -2.71712264e-01 -1.21125736e-01  1.75189933e-01
   2.94028806e-01  5.22626196e-02 -6.33889520e-02  9.67316060e-01
   1.32224424e-01  5.45911910e-01  1.78576377e-01 -8.71881792e-01
   9.59644761e-01  6.12854881e-01 -9.66975728e-01 -2.23167914e+00
  -8.59231194e-01  5.07081765e-01 -6.35817069e-01  2.15379656e-01
   1.34640125e+00 -7.95163252e-01  2.18278134e+00  1.32868797e+00
   1.23506356e+00 -8.23460661e-01  5.39819822e-01 -1.92666714e-01
   8.00614366e-01 -1.66053160e+00 -2.92640836e-01  1.86102473e+00
  -5.87670501e-01  1.68362820e+00  1.69054479e-01 -1.00875824e+00
  -3.20386459e-01 -1.53231410e+00 -2.21849264e-01  9.28809173e-01
   6.24385294e-01 -2.66209761e+00 -1.33331646e+00 -2.89981294e+00
  -1.32902042e+00 -2.84683608e-01 -9.86880710e-01 -1.24509514e+00
  -1.32721234e+00  6.89054950e-01 -4.59684601e-01 -5.54474950e-01
  -2.76247760e-01  8.33095959e-01 -9.28808364e-01  3.75456827e-01
  -1.51755568e+00 -1.99969975e+00 -8.38306388e-01 -1.45929236e+00
  -2.46337364e-01  8.31772441e-01 -6.09198565e-01 -5.73065833e-01
   1.40301383e+00  1.06231081e+00 -2.26540034e+00 -1.00070777e+00
   8.54815311e-01 -6.03811596e-02 -6.11407902e-01 -3.04344294e-01
  -7.27910957e-01  4.17257126e-02 -2.50243809e+00  5.93642667e-01
   3.15958397e-01 -1.52375393e-01 -1.01377313e+00  1.24815427e-01
  -8.76047526e-01 -6.69661615e-01 -5.59822269e-01 -3.52609768e-01
  -4.24047805e-03 -1.96980481e+00 -2.80514990e-02  1.69037496e+00
  -6.45119611e-01  2.39819141e+00 -7.03172881e-01  9.52171539e-01
   8.97250022e-01  7.73389174e-01 -1.31185218e+00 -3.43753506e-01
   3.45550871e-01 -1.08501602e+00 -3.14652984e-01  1.19827359e+00
   4.81426486e-01  4.62567193e-01 -5.96119047e-02 -1.06101167e+00
   5.39630851e-01 -6.06397959e-01  1.08598959e+00 -1.03165884e+00
  -1.92602297e-01 -9.23613962e-01  7.01885447e-01  6.03808501e-01
  -5.67422588e-01  1.87797224e+00 -4.53950274e-01 -2.63025401e-01
   1.40151225e+00  6.97025477e-02  1.87192414e+00  1.33557918e+00]
 [-1.37448688e-01 -4.53966912e-01 -9.64156742e-01  1.15099801e+00
   8.03512294e-01  4.97885229e-01 -1.48287841e+00  1.13006425e+00
  -5.90374353e-01  1.58063476e+00  5.91118586e-01  6.96842206e-01
   9.23775305e-01 -1.03026928e+00  4.53425449e-01  1.18659251e+00
  -8.67583468e-01 -1.03925979e-02  3.96213866e-01 -2.09596673e-01
  -2.07388284e-01  4.57454965e-01  4.96477390e-02 -4.11888795e-01
   2.03287468e-01 -1.12666999e+00  1.93980290e-01  9.85024903e-01
  -9.09394488e-02 -1.49343990e+00  1.36303447e+00 -9.46302250e-01
   1.30617886e+00 -1.15624994e+00  2.54654643e-01  6.85853944e-01
   1.11411230e-02 -1.70773838e+00  4.94294889e-01 -3.45936582e-01
   9.88410786e-01 -9.09655533e-01  2.99731805e-01  1.28611852e+00
   6.53699733e-01 -8.78511586e-01  6.42629483e-01 -4.93710498e-01
  -6.45612982e-01  1.01716624e+00 -1.42561002e+00 -1.07347055e+00
   6.63867526e-01 -2.01680963e-01  1.10657379e+00  1.00652074e+00
   1.33444003e+00  3.67339679e-01 -1.85068364e+00 -5.33780315e-01
  -6.12533860e-01  4.75878030e-01  1.08307625e+00  2.12441852e+00
  -3.67445829e-01 -7.89875949e-01  7.02578925e-02 -3.29406710e+00
   2.62203356e-01  1.17498752e+00 -9.50590165e-01  1.14444418e+00
   1.98254014e+00  3.41220110e-01 -8.13090427e-01 -1.88655458e+00
   1.34818143e+00 -7.83757865e-01  1.61677606e+00  1.85755937e+00
   1.84420607e+00  5.09758906e-01  2.04915351e-01  5.09837380e-01
  -2.93450734e-02 -1.30840602e+00 -2.38599965e+00  4.33549583e-01
  -5.58946216e-01  1.86642498e-02 -6.77776984e-01 -3.78962995e-01
   5.39900187e-01  2.76765032e-01 -1.72254777e+00 -4.27726770e-03
  -2.85931487e-01 -3.09664002e+00 -1.59533386e+00 -9.10868491e-01
  -1.24321914e+00 -1.94819107e-01  2.60502048e-01  6.84546835e-01
  -7.88018161e-01  1.50135580e+00  1.81323992e+00  6.97441477e-01
   2.77737246e-01  1.10371839e+00 -1.50741906e+00 -1.29836410e+00
   2.55568629e-01 -4.71661997e-01  9.07566547e-01  9.91616009e-01
   1.17288313e+00 -1.20748394e+00 -6.33391768e-01  2.06795278e-01
  -2.49815988e-02 -1.13192077e+00 -4.07926739e-01 -1.60363333e+00
  -7.44535468e-01  2.71136716e-01 -2.81298253e-01 -2.09799930e+00
  -1.09183218e+00 -1.07222697e+00  2.32305448e+00 -6.80320165e-01
  -5.94877320e-01 -1.39174647e+00 -1.75136783e-01 -1.43436858e+00
  -8.67895293e-01  4.95822639e-01  9.05729136e-01 -6.98357344e-01
  -1.21420234e+00  7.64506030e-01  5.60960491e-02 -1.62066799e-01
  -3.18896390e-01 -8.95848186e-01  1.62230795e+00 -1.26413379e+00
  -1.63178914e+00 -4.66986556e-01 -2.10934885e+00 -1.57037038e+00
   1.91085187e-01  3.23131922e-01 -1.07032321e+00 -3.13838790e+00
  -1.50738365e+00 -1.85868870e+00 -2.88872941e+00 -2.51711846e+00
  -2.89323907e+00  2.46749464e-01 -2.97744733e-01 -3.46660350e-01
   2.04031498e-01 -5.03063020e-01 -3.14532427e-01 -1.29300524e+00
   1.41735190e+00  6.80035746e-01  7.74866642e-01 -9.36166126e-01
  -1.54112237e+00 -1.66599034e+00 -2.90972303e-01 -1.72594152e+00
  -3.23663324e-02 -1.11057661e+00 -2.83090576e+00 -8.16459508e-01
  -5.14727435e-01 -1.69602208e+00  4.09111972e-01 -1.12421175e+00
  -1.48569219e+00 -1.79392294e+00 -2.42299907e+00 -1.24799040e+00
  -2.13286447e+00  6.05593413e-01  2.06243043e-01  9.18897890e-01
   1.30071761e+00 -3.93644383e-01 -7.47523859e-01 -6.73994388e-01
  -2.28174958e-01 -2.05627671e+00  1.79787957e+00 -3.74723219e-01
  -2.03308188e+00  1.19791252e+00  1.88510416e+00 -2.02856014e-01
  -2.67116539e+00  2.49497161e-01  6.47407961e-01 -9.69902378e-01
  -4.89654704e-02 -1.21060982e+00 -1.10979985e+00 -1.62203596e+00
   1.96375685e-01  3.18149060e-01 -1.16903954e+00  3.15905063e-01
   4.19514786e-01  2.63810221e-01  1.89576241e-01  3.06478746e+00
   3.32748955e-01  1.50818545e-01 -1.69648654e+00 -1.49215383e+00
  -9.79731856e-01 -2.33087752e-01 -7.64027581e-01 -1.12918480e-01
   5.77469267e-01  5.66288654e-01 -6.92313979e-01 -7.76749149e-01
   7.95656054e-01  1.32570278e+00  4.57917418e-01  3.74732453e-01
   6.79802868e-01  3.36240122e-01  1.22709572e-01 -3.14704791e-01
   1.41304213e+00  6.86067901e-01  1.89323034e+00  1.17181468e+00
   3.15193989e+00  5.92158248e-01  2.63779067e-01  7.80210855e-01
   4.67646586e-01  6.63182372e-01 -9.99288075e-01  8.00472121e-01
  -1.42659460e+00  1.34187505e+00 -5.64583239e-01  2.83487797e-01
   1.10622745e+00  1.40750694e+00  4.99637657e-02  4.24523760e-01
  -1.66078729e-01  6.94642514e-01  9.10240576e-01  8.16122763e-01
   1.64854623e+00  3.11408279e-01  2.38977842e+00  1.73169143e+00
   1.01230995e+00  1.38426179e+00  1.61430810e+00  1.29081652e+00
  -1.86123913e-01  2.33064654e+00  5.18632880e-01  1.55041139e+00
   3.13201956e+00  1.56040205e+00 -9.43502983e-02  8.27523039e-01
   1.66199704e+00  1.12196755e+00 -9.09363325e-01  3.44415190e+00
   1.23576777e+00  1.22150738e+00  1.85790650e+00 -9.39099696e-01
  -7.51344991e-01 -1.01967071e+00  1.16425074e+00  1.22190613e-01
   1.20256827e+00  2.25057946e+00  6.60347347e-01 -9.70374668e-01
   3.19599781e+00  1.44148676e+00  2.46295015e+00  2.54389139e+00
   2.62853980e+00  3.61722924e-01  2.32519452e-01  5.76539657e-01
   1.94830891e+00  2.02365361e-01 -6.82980077e-01 -1.72791932e+00
  -4.83392733e-01  1.34269471e+00  6.28775929e-01  1.02524716e+00
  -4.27691206e-01  2.22208935e-01  3.59808520e-01  4.77931414e-01
  -4.13863345e-01  2.02435194e+00  2.21302760e+00  5.72032579e-01
   1.68093212e+00  1.53227478e+00 -1.85697955e-01  9.54740997e-01
   9.63534354e-02  2.13098796e+00 -7.19590426e-01  1.04102012e-01
   1.25490850e-01 -1.81699449e-02 -6.99103867e-01  6.95750354e-01
   4.61720566e-02  1.26972556e+00  7.09704740e-01 -5.83128987e-01
  -1.40860718e+00  1.06551660e+00 -8.39443048e-01  4.25837934e+00
   9.39328900e-01 -5.34377745e-01  2.20787204e-01  6.87278694e-01
   6.95758291e-01  3.92326999e-01  1.25315752e+00 -1.04713869e+00
   1.01947407e+00 -1.19903163e-01 -1.27094854e+00 -1.00090999e+00
  -1.04731612e+00 -1.61703808e+00 -1.47153720e+00 -2.70560633e+00
  -1.31654530e-02  5.02630917e-02 -1.40194742e+00 -2.71499720e+00
   3.68314192e-01 -8.82408797e-01  4.21477053e-01  4.25179018e-01
  -1.31296200e+00 -1.06567233e+00  3.29224208e-01  8.22132858e-01
  -2.07161920e+00  1.83631167e+00  5.75149019e-01 -1.87564669e+00
  -8.69913275e-01 -1.73145361e+00  1.28121135e-01 -3.48494103e-02
  -4.69624233e-01 -3.99622694e+00 -1.21876645e+00 -3.22317997e+00
  -1.16696413e+00 -1.74654719e+00 -2.49346071e+00 -2.33031135e+00
  -1.44669035e+00  1.01733749e+00 -5.51810704e-01 -8.07685476e-01
  -3.91951361e-01 -3.80271143e-01  1.45272983e+00  1.12443612e+00
   9.96868297e-01 -3.69091032e-01  1.65339451e+00 -3.14574151e-02
  -1.00154138e+00  1.77840918e+00  1.20238094e+00 -1.28235546e+00
  -6.79591220e-02  5.99079907e-01  5.61778009e-01 -4.02637416e-01
  -1.79860552e+00 -2.80725183e+00 -4.01825956e-01 -1.28004301e+00
  -2.13140087e+00 -2.39877109e+00 -3.32853391e-02 -6.46246259e-01
  -1.70073150e-01 -7.87219917e-01 -1.83748231e-01 -8.30100526e-02
  -7.59173860e-01  2.81852176e+00  5.35468145e-01  2.10679973e+00
  -2.78875628e-01 -1.55985245e+00 -1.20455648e+00  1.30659563e-01
  -2.12415664e-01  1.65804107e+00 -1.11647188e+00 -1.76248961e+00
  -8.13856635e-01 -1.52118237e+00 -1.56895721e+00  5.55930421e-01
  -2.07745491e+00 -2.16129237e+00 -1.56835165e+00  1.80223823e+00
  -2.52010554e+00 -1.23136216e-01 -1.00041634e+00 -1.27909145e-01
  -1.57194966e+00  2.70329349e+00 -6.72715677e-01 -5.22313863e-01
  -7.51578060e-01 -1.80627898e-01  8.67020069e-02 -8.81200070e-01
  -1.88029243e-01  3.19895636e-01 -1.63754187e-01 -8.07329790e-01
  -8.89581435e-01  1.23438420e+00 -4.39326357e-01 -2.19425141e-01
   1.09677497e+00 -5.43323223e-01 -1.69993941e+00 -2.49315641e+00
  -2.35300677e+00 -2.50216714e+00 -2.00195038e+00 -1.94103634e-01
   1.71349244e-01  8.10783115e-01  2.12588076e+00  9.86521546e-01
   2.47654729e-01  2.47585232e+00  1.45414785e+00 -9.82649056e-01
   2.25811885e-01 -5.69346605e-01  6.99365391e-02 -3.49392000e-01
  -1.85437233e+00 -5.98925241e-01 -4.70634647e-01  6.92478755e-01
  -4.97851928e-01 -1.56994837e+00 -6.56178141e-01 -6.67649359e-02
   3.77371934e-01 -1.67844761e-01 -1.13542005e+00 -2.15211926e+00
  -1.07752261e+00 -4.07740586e-01 -9.31767160e-01 -4.47918806e-01
  -1.35835675e-01  1.62205407e+00 -9.73870048e-01 -7.34161963e-01
  -7.77487949e-02 -1.75224649e+00  1.51559110e+00 -5.85122631e-01
   1.32716982e+00  1.50995815e+00  1.50805967e+00  4.39008530e-01
   1.02381155e+00 -2.03979265e+00  1.19256879e+00 -4.69991943e-01
  -1.01952395e+00 -3.70128794e-01  6.46751385e-01  1.31580824e+00
  -8.84182326e-01 -1.62911301e+00 -6.08185656e-01 -1.08781904e+00
  -1.37647272e+00 -1.54772744e-01  8.44320358e-01 -2.08240070e-01
  -1.30066046e+00  2.26456280e-01  6.02704610e-01 -1.13540575e+00
   8.10517289e-01 -1.35563609e+00  4.04068565e-01 -1.75714945e+00
  -5.82086475e-01  5.64962759e-01  1.14842012e-01 -2.61568306e+00
   1.81511563e+00 -1.72156683e+00 -2.12667436e-01 -5.17340514e-01
  -6.12035883e-01  7.30302732e-01  6.64487126e-01 -2.02732550e-01
   9.97378675e-01  5.97325718e-01 -1.65071385e+00 -1.10428498e-01
  -9.04529112e-01  1.44116822e+00  1.21683919e+00 -2.67310251e-01
   1.12702735e-01 -1.17385184e+00 -3.94382629e-01  8.17109119e-01
  -2.14580189e+00  4.82883848e-01 -1.05408652e+00 -1.17116247e+00
  -3.59127805e-01  5.36966030e-01 -1.52728272e+00 -1.19756841e+00
  -7.98622152e-01  1.03147384e+00 -6.14964406e-02 -1.09586676e+00
  -1.28333590e+00 -9.38551356e-01 -4.32880551e-01 -7.81465696e-01
   2.47564146e-01  1.20793067e+00  5.19171463e-01 -8.36994588e-01
   6.16399250e-01 -8.42989834e-01 -5.26204970e-02 -1.69679173e+00
  -2.22513043e+00 -5.30245728e-01 -1.45246829e+00 -6.55948203e-01
  -1.13348165e+00 -1.42938394e+00  9.13708718e-01 -3.03453985e-02
  -1.40207761e+00  1.59846890e+00 -2.55825607e-01 -2.01891240e-01
   1.08769248e+00  2.25821557e+00 -1.41385679e+00 -4.49947479e-01
  -1.97497700e+00 -1.58178536e+00  1.04870678e+00 -8.83886547e-01
   6.53484556e-01  3.51475488e-01  1.78934587e-01  5.36257877e-01
   1.49169228e-01 -1.51224964e-02 -1.34968194e+00  4.86087152e-01
  -2.30589841e+00 -5.91612409e-01  5.83579698e-01  1.42380547e-01
  -1.70246755e+00 -4.74301192e-01  9.38779673e-01  1.67902316e+00
  -1.55385746e+00 -1.19762739e+00 -2.07552182e+00 -4.09275955e-01
   5.13651685e-01 -2.31449834e+00 -1.11322084e+00  4.18802492e-01
  -1.42872094e+00 -4.03085797e-01  1.50879718e-01 -2.28884542e+00
   7.09441288e-02  6.53529595e-01  3.22286296e-01 -1.38575923e+00
   5.39632570e-01  4.46814961e-01 -8.70690570e-02  1.03921389e+00
   1.95570418e+00  2.69900571e+00 -1.22228595e+00  1.19745378e+00
  -5.08495076e-02 -1.73687618e+00  2.00663511e+00 -7.22128696e-02
  -1.75051662e+00 -7.28576136e-01 -1.34680327e+00 -3.76406481e-02
  -1.48484107e+00 -6.88187163e-01 -2.30010238e-01 -5.91848257e-01
  -1.13269030e+00 -5.20331629e-01  6.21863280e-01 -1.14661843e-01
  -2.01168986e+00  5.16844650e-01 -6.64953405e-01 -6.16104183e-01
  -7.05163978e-01  2.57522855e-01  1.46044210e+00  1.89218755e-03
   3.97127801e-02 -8.55280914e-02 -1.25386811e+00  9.03901494e-01
  -4.20930759e-01 -3.64217924e-01  1.68055375e-01 -6.03435442e-01
   1.14441028e+00 -4.79567540e-01 -1.29566515e+00  8.84540293e-01
   3.22825725e-01  1.80602346e+00  9.19734656e-01  9.65244960e-01
  -5.99869598e-02 -1.54099104e+00  5.84020371e-01  6.98368347e-01
   6.45738982e-01  7.33188134e-01  6.62947132e-01  1.37930726e+00
  -1.30373490e+00 -4.90634741e-01  7.87750740e-01  1.80081411e+00
   4.79481668e-01  2.15745858e+00  6.46476639e-01 -2.02291920e+00
  -5.19022469e-01 -8.33235286e-01 -3.58337322e-01  8.10118467e-01
  -3.32606132e-01 -6.03685018e-01  1.52324488e-02 -1.16966393e-01
   3.55908448e-02  7.07310995e-01  1.42464307e-01 -1.34421688e+00
  -3.73079875e-01  1.13295643e+00  1.05559952e+00  6.26541200e-01
   1.20381781e+00 -7.30966328e-04 -8.90002826e-01 -3.18305094e-01
   1.16725885e+00  1.49800461e+00 -4.18667073e-01 -1.70475568e+00
   6.85325833e-01  7.29803765e-01  3.02895572e+00 -8.25109855e-01
  -2.54920534e+00 -2.10761901e-01  1.21128471e+00  1.16990906e+00
   9.34606952e-01  5.70558707e-01  1.03281523e+00  5.26404918e-01
   6.36406532e-01  2.90686160e-01 -9.01833807e-01 -3.52706793e-01
  -1.60225428e+00 -1.14336925e-01 -7.37356695e-01  5.08348857e-01
  -2.71357568e+00 -1.52959124e+00 -1.30120820e+00  4.12821142e-01
  -6.29999684e-01 -2.13186970e+00 -6.68680303e-01  1.73326008e+00
  -1.29506291e-01  2.76512636e-01 -5.96971247e-01 -3.01632611e-01
  -1.26481068e+00  1.18790764e+00 -1.85383577e-01  9.71324674e-01
   3.36256730e-01 -4.54334296e-01 -1.60191776e+00 -3.04345533e-01
   1.15124246e+00 -2.43129542e-01  1.04463358e+00  9.57451872e-01
   2.39293393e-01  2.05814209e-01 -3.57342294e-01 -5.98822998e-02
   7.92173725e-01 -8.89782391e-01  2.81707414e-01 -1.61625081e+00
  -1.77261929e+00  2.51905306e+00 -5.56403542e-01 -6.56767805e-01
   3.89496005e-01  2.64259751e-01  1.30807772e+00 -4.27203561e-01
   1.31220280e+00  3.44178349e-01  8.61325052e-01  5.07429457e-01
   1.82464690e-01  1.54871229e+00 -6.04056823e-01  8.66512091e-02]
 [ 5.51584477e-01  1.88433334e-02 -1.22379757e+00  1.94170928e-01
   1.01807676e+00  5.90314881e-01 -5.17275681e-01 -1.63040888e+00
  -6.92061957e-01 -8.72936305e-01  9.61917430e-01  8.35984888e-01
   2.25292534e+00  1.70760827e-01 -5.16018783e-01 -2.71582841e-01
  -9.69808356e-01  6.54618316e-01  1.52380546e+00 -5.11736653e-01
   4.64848680e-01 -1.79232522e+00  7.35464196e-01 -1.10011652e-01
   3.02119202e-01  5.68240277e-01  1.02606466e+00 -2.44080041e+00
   1.83098521e-01 -3.75065336e-02  3.95718100e-02 -7.83144187e-01
   4.59968495e-01 -1.07553108e+00  5.90996662e-01 -7.36561116e-02
  -1.25885212e+00 -1.85152494e+00  1.11876874e+00 -5.60981859e-01
   1.22974892e+00  1.48105600e+00 -2.37404376e-01 -1.69206466e+00
   6.72153895e-01 -1.16743784e-01 -1.74510645e-01 -6.78301940e-01
  -2.06336080e+00  2.21441518e-01  3.41117040e-01  8.72382412e-01
   3.07223623e-01  2.64956759e-01  2.78319037e-01 -5.89518501e-01
  -1.54001590e+00 -3.79793675e-01  4.34837302e-01 -1.29208541e+00
   2.19629462e+00 -3.32492076e-01 -5.91001589e-03 -2.32492718e+00
   1.16683562e+00 -1.22149322e-01 -4.27526546e-01  5.57034891e-02
  -9.72112689e-01  2.60950284e-01 -4.42186797e-01 -2.23024270e+00
  -3.63953994e-01  1.64472542e+00  1.07228246e-01 -8.25440971e-01
  -1.36257596e+00  8.64329075e-01  2.13448055e-01  3.83780976e-02
  -9.14150614e-01 -2.20394093e-01  6.77343077e-01  7.14636699e-01
  -1.50351764e+00 -1.38911825e+00  1.28344102e+00 -5.06645650e-01
  -3.60458501e-01 -1.98210974e+00 -1.57467166e+00  6.01291398e-01
   6.05487940e-03  8.05956547e-01 -8.18032873e-01  1.14446584e-01
   3.06442582e-01  5.91122703e-01  2.89556050e-01 -9.43474842e-01
  -7.77017206e-01  5.17444871e-01  8.62137206e-01 -1.14044454e+00
   8.55575625e-01 -4.81122658e-01  1.12431960e-01 -1.05918476e+00
  -7.99296919e-02  4.03238523e-01  8.97521864e-02  5.60576806e-01
  -1.62714367e+00  6.74605790e-01 -8.83167038e-01  1.92314905e+00
   1.03531516e+00  1.97095829e+00  2.11005635e-01 -9.95959942e-01
   5.99385689e-01 -1.36911314e+00 -7.71696695e-01 -6.73711520e-01
   3.55812047e-01 -1.45338994e-01  5.19732100e-01  1.89111093e+00
  -1.12714993e-01 -6.48166784e-01  1.51833463e+00 -4.33641118e-01
   1.56252668e-02  1.07574739e+00  5.50211753e-01 -7.10084498e-01
   1.32367195e+00 -1.56810955e+00  4.12004569e-01  4.68739601e-01
   1.56544930e+00  1.21678559e+00 -6.01704118e-01 -5.39028071e-01
  -1.52530863e+00  1.85182304e+00  1.54316509e+00  4.11465776e-01
   1.10391010e+00 -2.92617099e-01  4.01014530e-01  9.38724075e-01
  -8.55870066e-01  9.59046829e-01 -8.22539116e-01 -1.68205439e-01
   8.06901832e-01 -3.92017621e-01 -3.43421812e-01 -2.39007939e-01
  -5.15015111e-01  7.99866801e-01 -6.56947634e-01  6.10095796e-01
  -3.33361691e-01  1.04839700e+00  1.39806433e+00 -2.91961337e-02
  -1.45469686e+00 -1.38990389e+00 -1.10078512e+00  4.55821699e-01
  -8.71032989e-01 -1.21815313e+00  1.86048583e-01 -3.89750573e-01
   7.56205335e-01  6.27980489e-01 -5.16542813e-01  1.18619709e+00
  -8.99301890e-01  4.90418058e-01  1.04034800e+00 -4.06577673e-01
   3.01257589e-01 -1.07839784e-01 -4.10563132e-01  5.24812007e-01
   4.95099342e-01 -1.72100943e+00  9.94604375e-01  4.82459016e-01
  -2.03561809e-01 -4.04243485e-01 -4.22259570e-01 -1.43069806e-01
  -1.18073682e+00  1.26511062e-02  7.46998087e-01 -3.97913153e-01
  -9.52802429e-01 -3.57917223e-01  1.25981812e+00 -1.39613951e+00
  -9.38105637e-01 -7.42929120e-01 -1.34621033e-01 -9.52032379e-01
  -6.15215004e-01  8.42684961e-01 -3.82047344e-01  7.79434978e-01
   9.92085324e-01  6.04024945e-01 -1.04820460e+00  4.36341827e-01
   9.64951450e-01 -3.39616140e-01  1.22125274e+00 -1.33132542e+00
   9.22234217e-01  8.54392087e-01 -2.17260109e+00 -4.43248910e-01
  -3.81268469e-01 -1.34274473e+00  5.60631219e-01 -1.70229026e-01
  -8.44481323e-01  1.57266900e+00 -1.22664815e-01  1.00513601e+00
  -3.79480436e-01  2.76688969e-02 -2.94750560e-01  1.29782518e-01
  -6.62407265e-02  1.44289913e-01  4.85381000e-01  3.81555627e-01
  -6.84205608e-01  8.41343281e-01  5.70362614e-01 -9.00476765e-01
   1.89906250e-02 -3.49447482e-02  6.33990560e-01 -7.77851051e-01
   2.08361379e+00 -1.42406770e+00 -8.18614549e-01  1.15494171e+00
   6.80860887e-01 -1.03895675e+00 -1.40055068e+00  1.47546990e+00
  -5.86456078e-01  4.76186301e-01  5.82370967e-01 -2.08621784e-01
  -1.71593138e-01  9.41351245e-01  3.41393861e-01  8.18818164e-01
   1.03774338e+00 -3.93903692e-02 -1.58442910e-01 -6.27838917e-01
   2.39617382e-01 -1.79124490e+00  1.64803736e-01 -1.40606492e+00
  -3.09627173e-01 -2.53859602e-01 -5.57195611e-01 -3.54403234e-01
   1.51277756e+00  1.12123739e+00  1.82301391e+00 -2.96987863e-01
   6.85509732e-01  3.42888939e-01 -1.01553351e+00  6.31880425e-01
  -2.97524434e-01 -4.51286374e-02 -1.53573503e+00  5.06754466e-01
   6.71991205e-01 -9.89004934e-01 -2.36343589e-01 -1.23094568e+00
  -3.87998425e-01  1.05507630e-01 -7.14489642e-01  1.66387956e-02
   3.04593269e-01  2.63460327e-01  5.38632354e-02  1.02848997e-01
  -3.14110482e-01 -1.25940856e+00  1.42734314e+00  6.61246669e-01
   1.44326081e-01  9.40740476e-01  3.97890932e-01  1.85171964e+00
   4.79227262e-01 -4.25334147e-01 -1.62572943e+00 -1.92288896e+00
  -4.28698502e-01 -3.43807304e-01 -1.60278722e+00 -2.62553488e-01
  -1.81291419e-01  1.49503970e-01  1.83468154e-01 -3.44658576e-01
   2.79450812e+00  8.08694408e-01  1.32442492e+00  1.73170899e+00
   3.71312854e-01  3.07198508e-01  1.78821331e+00 -6.01315927e-01
   7.84157882e-01  1.01014061e+00 -1.05858634e+00 -1.69704759e+00
   7.50533753e-01  2.17364100e+00  6.93049998e-01 -5.06479129e-01
  -1.29621762e-01  2.23965238e+00 -1.52160975e+00 -1.43128140e+00
  -3.45698493e-01  3.30416088e-01  5.10799084e-01  1.38443053e+00
  -6.91054744e-01  2.36476443e-02  7.45716541e-01  1.29191952e+00
   4.84409180e-01  8.14768067e-01  5.35829778e-01  6.40355413e-01
  -1.05403145e-01 -6.85489287e-03  5.82065494e-01 -8.93098892e-01
  -9.18015277e-01 -2.58740381e+00  2.19162241e-01  2.04533749e-01
  -6.38046526e-01 -1.44866205e+00  2.31188531e+00  9.04252682e-02
   1.97222398e-01 -3.56844629e-01 -1.62516409e+00 -9.27585730e-01
  -1.47680720e+00 -9.03769649e-01 -6.50299308e-01 -7.51887929e-01
   8.04662132e-01  4.06880865e-01 -6.97382045e-02  1.47678221e+00
   7.67666505e-01  2.52897643e+00  6.17210691e-01  7.68313573e-01
   1.93774199e+00 -1.02368753e-01 -1.73011452e-01  9.04790099e-01
  -1.33451582e+00  1.58893344e+00 -1.86768916e+00 -1.14610400e-01
  -1.02321612e+00 -2.27472604e+00  8.59312620e-01 -3.42109027e-01
   5.47601125e-01 -6.26049573e-01  1.17374482e-01 -5.00727403e-01
  -1.86999723e+00 -7.97554962e-01 -2.66581421e+00 -8.50636796e-01
  -6.40756556e-01  7.50922929e-01 -9.16140308e-01  1.49298561e-01
   1.01002717e+00  2.51311158e-01 -1.23759597e-01  1.59080747e+00
  -9.08809299e-02 -2.41691723e-01  5.79371222e-02 -6.07827618e-01
  -5.36950768e-01 -6.24205028e-01 -1.09188890e+00 -1.56395603e+00
  -9.66163662e-01 -2.48967459e-01  3.86370524e-01  5.51740047e-01
  -1.56677925e+00 -4.18155713e-01  1.53233225e+00  2.03734889e-01
  -5.63996354e-01 -2.25589288e+00 -4.18148919e+00 -2.76339732e+00
  -2.49522531e+00 -1.20372525e+00  9.20452079e-01  1.69142033e+00
   2.46557742e+00 -2.12309612e-02 -8.46842924e-01  2.80239459e-01
  -5.79539818e-01 -1.21054077e+00  3.73688573e-01 -3.18746139e-01
  -6.99855375e-01  2.36338534e-01 -1.31759968e+00 -3.58143397e-01
   1.35812402e+00  9.45150105e-01 -3.52942250e-01  1.43124073e+00
   3.07500274e-01  2.68141928e-01  1.71590019e+00  1.08297830e+00
  -2.67214034e-01 -1.36310475e+00 -3.48290657e+00 -4.87300548e+00
  -3.93941345e+00 -4.52683685e+00 -1.80963630e+00  1.79372061e+00
   1.81415151e+00  1.65729566e+00  5.33894908e-01 -8.11135735e-01
   6.33611812e-01 -1.72742288e-01  2.33764177e-01  1.47632860e+00
  -3.31676387e-01 -6.34859572e-01 -1.30873074e-01  1.66003155e-01
  -5.28561611e-01  4.49473073e-01  1.66667996e+00 -9.53840144e-01
  -6.12833159e-01  1.58047350e+00 -2.82282728e-01  3.07192195e-01
  -1.57005265e-01  4.55636076e-01 -1.98640520e+00 -1.46319225e+00
  -7.09380662e+00 -8.66619018e+00 -9.85341586e+00 -8.48977652e+00
  -6.54489425e+00 -2.11715418e+00 -1.77190638e+00 -5.14698476e-01
  -1.43575703e+00 -1.14202159e+00 -2.20280312e-01  4.67219231e-01
   3.37248177e-01 -1.13609272e+00  6.04730252e-02  3.46466902e-01
  -3.28668043e-01  6.34527666e-01  9.32980844e-01  3.68972552e-01
  -1.89289562e-01  1.52206271e+00 -1.08296216e+00  5.11644732e-01
   1.65763378e+00 -9.26920888e-01 -7.36106749e-01  4.66506689e-02
  -7.86075618e-01 -4.39099120e+00 -6.23280261e+00 -6.25248921e+00
  -6.62758125e+00 -4.62948177e+00 -2.03913898e+00 -2.01904974e-01
   1.48066516e+00  6.86930264e-01  6.59427853e-02  6.49933578e-01
  -3.46000694e-01  3.17556919e-01 -9.79946319e-02 -1.30928178e-01
  -6.02952959e-01  3.65566808e-01 -2.05400124e+00 -8.33162493e-03
   3.98865448e-01 -1.52854760e+00  3.94462651e-01  1.15344366e+00
  -1.88781299e-01  4.73731669e-01  1.79233033e+00  1.82297435e+00
   2.14455968e+00  1.56099032e+00  7.20382555e-01  6.01980986e-03
  -1.33272422e+00 -1.17485139e+00 -7.76359118e-01 -1.46536935e+00
  -8.14431838e-01 -1.17794429e+00  8.94244537e-01 -7.53902340e-01
   1.47564031e+00  2.54788397e+00 -1.44390745e+00  7.98445496e-01
   7.50558950e-01  2.49640562e-01  9.76847635e-01  3.61180525e-01
  -6.01252003e-01 -4.73384916e-03  1.51841691e+00  1.78133294e+00
   2.03493984e+00  1.49194954e+00  3.57801758e-01  4.90314461e-02
   6.39069619e-01  2.43318952e+00  1.84048165e+00  6.23764965e-01
